{"learner":{"attributes":{"best_iteration":"499","best_ntree_limit":"500"},"feature_names":["RentMortgagePayment","TotalIncome","CarPayment","Expenses","AvailableIncome","Miles","OpeningBalance","Salary","Term","VehicleYear","CreaditScore","LTV","DTI","TradelinesTotal","TradelinesBalance","Reposessions","Bankrupcies","Chageoff","Mortgage","NinetyDaysDelinquent","InquiresTotal","OpenTotal","ClosedTotalTermsNotPaid","LatePaymentHistory001230","LatePaymentHistory001260","LatePaymentHistory001290Plus","PaidAccounts","InquiriesLast6Months","OpenTotalInBadStatus","CurrentPaymentsMade","RentMortgage","CashDown","HomeOwner"],"feature_types":["float","float","float","float","float","float","float","float","int","int","int","float","float","int","int","int","int","int","int","int","int","int","int","int","int","int","int","int","int","int","float","int","int"],"gradient_booster":{"model":{"gbtree_model_param":{"num_parallel_tree":"1","num_trees":"500","size_leaf_vector":"0"},"tree_info":[0,0,0,0,0,0,0,0,0,0,0,0,0,0,0,0,0,0,0,0,0,0,0,0,0,0,0,0,0,0,0,0,0,0,0,0,0,0,0,0,0,0,0,0,0,0,0,0,0,0,0,0,0,0,0,0,0,0,0,0,0,0,0,0,0,0,0,0,0,0,0,0,0,0,0,0,0,0,0,0,0,0,0,0,0,0,0,0,0,0,0,0,0,0,0,0,0,0,0,0,0,0,0,0,0,0,0,0,0,0,0,0,0,0,0,0,0,0,0,0,0,0,0,0,0,0,0,0,0,0,0,0,0,0,0,0,0,0,0,0,0,0,0,0,0,0,0,0,0,0,0,0,0,0,0,0,0,0,0,0,0,0,0,0,0,0,0,0,0,0,0,0,0,0,0,0,0,0,0,0,0,0,0,0,0,0,0,0,0,0,0,0,0,0,0,0,0,0,0,0,0,0,0,0,0,0,0,0,0,0,0,0,0,0,0,0,0,0,0,0,0,0,0,0,0,0,0,0,0,0,0,0,0,0,0,0,0,0,0,0,0,0,0,0,0,0,0,0,0,0,0,0,0,0,0,0,0,0,0,0,0,0,0,0,0,0,0,0,0,0,0,0,0,0,0,0,0,0,0,0,0,0,0,0,0,0,0,0,0,0,0,0,0,0,0,0,0,0,0,0,0,0,0,0,0,0,0,0,0,0,0,0,0,0,0,0,0,0,0,0,0,0,0,0,0,0,0,0,0,0,0,0,0,0,0,0,0,0,0,0,0,0,0,0,0,0,0,0,0,0,0,0,0,0,0,0,0,0,0,0,0,0,0,0,0,0,0,0,0,0,0,0,0,0,0,0,0,0,0,0,0,0,0,0,0,0,0,0,0,0,0,0,0,0,0,0,0,0,0,0,0,0,0,0,0,0,0,0,0,0,0,0,0,0,0,0,0,0,0,0,0,0,0,0,0,0,0,0,0,0,0,0,0,0,0,0,0,0,0,0,0,0,0,0,0,0,0,0,0,0,0,0,0,0,0,0,0,0,0,0,0,0,0,0,0,0,0,0,0,0,0,0,0,0,0,0,0,0,0,0,0,0,0,0,0,0,0,0,0,0,0,0,0,0,0,0,0,0,0,0],"trees":[{"base_weights":[3.3764215E0,4.076587E0,2.263061E0,4.486389E0,2.9585779E0,1.5129497E0,2.6015294E0,4.7726765E0,2.927355E0,1.1733577E0,3.262071E0,5.0106587E0,1.4510484E0,2.9780846E0,2.0141997E0,5.0362043E0,3.5424063E0,3.5694609E0,1.3118421E0,5.0921947E-1,2.837224E0,3.8605812E0,2.497882E0,-4E-1,7.4598403E0,1.8875579E0,9.489711E-1,3.1653621E0,1.4958911E0,1.7329408E0,2.590766E0,5.8614182E0,4.5832925E0,3.7736278E0,1.250943E0,4.642021E0,2.5836701E0,5.2800184E-1,3.3220959E0,2.7461752E-1,2.6383266E0,2.0318184E0,7.5994906E0,3.4347951E0,5.611717E0,2.962533E0,1.6635104E0,9.418702E-1,8.156853E0,5.4289856E0,1.7279388E0,1.5914242E0,7.247741E-1,3.3574739E0,1.6778834E0,1.1016699E0,5.230436E0,2.026216E0,1.2055659E0,2.8464499E0,8.3507675E-1,5.1350236E0,7.1983724E0,1.8974501E0,4.8045845E0,1.8915071E0,4.171065E0,3.6697285E0,6.450244E-1,6.3741226E0,3.1639614E0,1.5842867E0,3.5074074E0,2.9167597E0,1.7627779E-1,4.995229E0,3.3608535E-1,7.157168E-2,1.0543863E0,-6.8214215E-2,4.905146E0,5.111259E0,6.394932E-1,1.1649237E1,-3.3333334E-1,7.7007836E-1,3.682771E0,6.633678E0,2.7164981E0,2.5768528E0,5.9972663E0,3.341754E0,1.2333175E0,8.277944E0,2.6069205E0,1.215402E0,2.3949342E0,4.675635E0,1.3187077E0,4.9463922E-1,1.3011874E0,1.9896938E0,3.535925E0,7.536668E-1,2.716417E0,3.2657297E0,7.971445E-1,3.1048667E-1,7.0366063E0,2.2251484E0,6.536582E-1,3.232915E0,8.51935E-1,3.0352979E0,5.625101E-2,2.9780182E-1,4.118594E0],"categories":[],"categories_nodes":[],"categories_segments":[],"categories_sizes":[],"default_left":[1,1,1,1,1,1,1,1,1,1,1,1,1,1,1,1,1,1,1,1,1,1,1,0,1,1,1,1,1,1,1,1,1,1,1,1,1,1,1,1,1,1,1,1,1,1,1,0,0,1,1,1,1,1,1,1,1,1,1,1,1,0,0,0,0,0,0,0,0,0,0,0,0,0,0,0,0,0,0,0,0,0,0,0,0,0,0,0,0,0,0,0,0,0,0,0,0,0,0,0,0,0,0,0,0,0,0,0,0,0,0,0,0,0,0,0,0],"id":0,"left_children":[1,3,5,7,9,11,13,15,17,19,21,23,25,27,29,31,33,35,37,39,41,43,45,-1,47,49,51,53,55,57,59,61,63,65,67,69,71,73,75,77,79,81,83,85,87,89,91,-1,-1,93,95,97,99,101,103,105,107,109,111,113,115,-1,-1,-1,-1,-1,-1,-1,-1,-1,-1,-1,-1,-1,-1,-1,-1,-1,-1,-1,-1,-1,-1,-1,-1,-1,-1,-1,-1,-1,-1,-1,-1,-1,-1,-1,-1,-1,-1,-1,-1,-1,-1,-1,-1,-1,-1,-1,-1,-1,-1,-1,-1,-1,-1,-1,-1],"loss_changes":[4.9774766E3,1.7854688E3,6.236758E2,1.2674492E3,5.683154E2,1.5966089E2,3.7041992E2,7.6804297E2,4.6004126E2,1.6983601E2,4.0290918E2,1.7525583E2,1.6455237E2,2.8256152E2,1.03836426E2,7.183906E2,2.2363867E2,3.2634912E2,2.0151353E2,5.5218643E1,1.5332373E2,3.565122E2,1.4976074E2,0E0,3.320523E1,2.1955725E2,4.99794E1,2.566963E2,1.6796173E2,6.746631E1,9.5034546E1,6.4575977E2,7.58791E2,2.845874E2,5.7721992E1,3.6897534E2,1.5045862E2,7.84631E1,1.7817691E2,1.6074076E1,6.782225E1,1.639471E2,1.9663855E2,2.6676416E2,2.689829E2,2.8300708E2,1.00563965E2,0E0,0E0,1.1509909E2,1.3007251E2,7.037567E1,3.4509384E1,1.9115918E2,1.0065451E2,6.856998E1,9.556415E1,7.745593E1,1.14822815E2,9.941785E1,4.993387E1,0E0,0E0,0E0,0E0,0E0,0E0,0E0,0E0,0E0,0E0,0E0,0E0,0E0,0E0,0E0,0E0,0E0,0E0,0E0,0E0,0E0,0E0,0E0,0E0,0E0,0E0,0E0,0E0,0E0,0E0,0E0,0E0,0E0,0E0,0E0,0E0,0E0,0E0,0E0,0E0,0E0,0E0,0E0,0E0,0E0,0E0,0E0,0E0,0E0,0E0,0E0,0E0,0E0,0E0,0E0,0E0],"parents":[2147483647,0,0,1,1,2,2,3,3,4,4,5,5,6,6,7,7,8,8,9,9,10,10,11,11,12,12,13,13,14,14,15,15,16,16,17,17,18,18,19,19,20,20,21,21,22,22,24,24,25,25,26,26,27,27,28,28,29,29,30,30,31,31,32,32,33,33,34,34,35,35,36,36,37,37,38,38,39,39,40,40,41,41,42,42,43,43,44,44,45,45,46,46,49,49,50,50,51,51,52,52,53,53,54,54,55,55,56,56,57,57,58,58,59,59,60,60],"right_children":[2,4,6,8,10,12,14,16,18,20,22,24,26,28,30,32,34,36,38,40,42,44,46,-1,48,50,52,54,56,58,60,62,64,66,68,70,72,74,76,78,80,82,84,86,88,90,92,-1,-1,94,96,98,100,102,104,106,108,110,112,114,116,-1,-1,-1,-1,-1,-1,-1,-1,-1,-1,-1,-1,-1,-1,-1,-1,-1,-1,-1,-1,-1,-1,-1,-1,-1,-1,-1,-1,-1,-1,-1,-1,-1,-1,-1,-1,-1,-1,-1,-1,-1,-1,-1,-1,-1,-1,-1,-1,-1,-1,-1,-1,-1,-1,-1,-1],"split_conditions":[1.1004165E4,2.01E3,1.5E0,5.905E2,1.0328866E0,1.106763E4,1.30491E4,2.0135E3,2.95E1,4.65E1,5.415E2,2.5E0,6.29195E2,4.9E1,1.85E1,4.2034003E2,1.4874957E0,2.273E3,3.16E3,9.3872E2,1.15E1,5.5E0,9.937125E3,-4E-3,3.23495E2,6.155E-2,4.59E2,3.35E3,1.25E1,1.481077E4,5.65E1,1.15E1,6.649915E3,5E-1,2.97E2,1.3756285E0,1.5E0,1.2105758E0,1.35E1,2.0145E3,7.5299E2,1.1483E4,5E-1,1.416E3,1.5E0,3.375E2,1.93E3,9.418702E-3,8.1568524E-2,3.8727002E2,5E-1,6.99245E2,9.70115E2,1.127388E4,1.25E1,1.119352E4,1.19673E3,4E1,2.107E3,1.4981668E0,5.3645E-1,5.1350236E-2,7.1983725E-2,1.89745E-2,4.8045844E-2,1.891507E-2,4.171065E-2,3.6697283E-2,6.450244E-3,6.374122E-2,3.1639613E-2,1.5842866E-2,3.5074074E-2,2.9167596E-2,1.7627778E-3,4.9952287E-2,3.3608535E-3,7.1571674E-4,1.0543862E-2,-6.8214216E-4,4.905146E-2,5.111259E-2,6.394932E-3,1.1649236E-1,-3.3333334E-3,7.7007837E-3,3.682771E-2,6.633678E-2,2.716498E-2,2.5768528E-2,5.9972662E-2,3.3417538E-2,1.2333174E-2,8.277944E-2,2.6069203E-2,1.2154019E-2,2.3949342E-2,4.6756346E-2,1.3187077E-2,4.946392E-3,1.3011874E-2,1.9896938E-2,3.535925E-2,7.536668E-3,2.716417E-2,3.2657295E-2,7.971444E-3,3.1048667E-3,7.036606E-2,2.2251483E-2,6.536582E-3,3.232915E-2,8.519351E-3,3.0352978E-2,5.625101E-4,2.9780183E-3,4.118594E-2],"split_indices":[6,31,19,10,11,6,6,9,29,22,10,20,3,29,20,3,11,7,1,3,25,19,6,0,2,12,10,31,26,6,29,20,6,19,14,11,19,11,13,9,4,14,0,7,24,0,7,0,0,2,19,3,3,6,20,6,4,29,7,11,12,0,0,0,0,0,0,0,0,0,0,0,0,0,0,0,0,0,0,0,0,0,0,0,0,0,0,0,0,0,0,0,0,0,0,0,0,0,0,0,0,0,0,0,0,0,0,0,0,0,0,0,0,0,0,0,0],"split_type":[0,0,0,0,0,0,0,0,0,0,0,0,0,0,0,0,0,0,0,0,0,0,0,0,0,0,0,0,0,0,0,0,0,0,0,0,0,0,0,0,0,0,0,0,0,0,0,0,0,0,0,0,0,0,0,0,0,0,0,0,0,0,0,0,0,0,0,0,0,0,0,0,0,0,0,0,0,0,0,0,0,0,0,0,0,0,0,0,0,0,0,0,0,0,0,0,0,0,0,0,0,0,0,0,0,0,0,0,0,0,0,0,0,0,0,0,0],"sum_hessian":[6.396E3,3.925E3,2.471E3,2.87E3,1.055E3,7.7E2,1.701E3,2.423E3,4.47E2,1.54E2,9.01E2,1.2E1,7.58E2,1.034E3,6.67E2,1.993E3,4.3E2,3.19E2,1.28E2,1.11E2,4.3E1,5.03E2,3.98E2,4E0,8E0,4.04E2,3.54E2,9.17E2,1.17E2,4.51E2,2.16E2,7.02E2,1.291E3,3.9E2,4E1,1.51E2,1.68E2,9.3E1,3.5E1,1.01E2,1E1,3.8E1,5E0,4.07E2,9.6E1,2.54E2,1.44E2,1E0,7E0,1.6E1,3.88E2,9E1,2.64E2,8.11E2,1.06E2,1.07E2,1E1,2.88E2,1.63E2,1.88E2,2.8E1,4.58E2,2.44E2,9.9E1,1.192E3,6.9E1,3.21E2,7E0,3.3E1,6.8E1,8.3E1,8.2E1,8.6E1,1.1E1,8.2E1,2.2E1,1.3E1,8.1E1,2E1,5E0,5E0,1.1E1,2.7E1,3E0,2E0,3.5E1,3.72E2,7E1,2.6E1,2.27E2,2.7E1,2.8E1,1.16E2,7E0,9E0,2.21E2,1.67E2,6E0,8.4E1,1.9E2,7.4E1,9.5E1,7.16E2,5.7E1,4.9E1,1.2E1,9.5E1,3E0,7E0,2.51E2,3.7E1,2.3E1,1.4E2,1.76E2,1.2E1,2.5E1,3E0],"tree_param":{"num_deleted":"0","num_feature":"33","num_nodes":"117","size_leaf_vector":"0"}},{"base_weights":[3.3429205E0,4.0360823E0,2.240697E0,4.441708E0,2.9294655E0,1.4982221E0,2.5757189E0,4.725071E0,2.898596E0,1.1631099E0,3.229749E0,4.967243E0,1.4368315E0,2.9485009E0,1.9942745E0,4.9859376E0,3.507223E0,3.5342233E0,1.2993767E0,5.0465965E-1,2.8127306E0,3.8222494E0,2.4732327E0,-3.9679998E-1,7.3953514E0,1.8690403E0,9.3970084E-1,3.1338062E0,1.4818991E0,1.7157655E0,2.5652044E0,5.8029795E0,4.5375113E0,3.8376756E0,1.9131652E0,4.5962286E0,2.5581346E0,5.2305084E-1,3.290356E0,2.7198175E-1,2.6163406E0,2.0129747E0,7.5423555E0,3.4005563E0,5.556564E0,2.933244E0,1.6471909E0,9.3716085E-1,8.085481E0,5.3810987E0,1.7107522E0,1.5761687E0,7.175941E-1,3.3239672E0,1.6614289E0,1.0910294E0,5.184811E0,2.0060534E0,1.1937593E0,2.8181489E0,8.282488E-1,5.083785E0,7.1266823E0,1.8786653E0,4.7565784E0,2.0465136E0,4.201114E0,2.351201E0,-1.9465044E-1,6.311305E0,3.1326983E0,1.5686347E0,3.4727364E0,2.8900228E0,1.7453623E-1,4.9474483E0,3.3296457E-1,7.086467E-2,1.0443444E0,-6.7645766E-2,4.86427E0,5.0644054E0,6.333267E-1,1.1561867E1,-3.311111E-1,7.625915E-1,3.6460419E0,6.5682755E0,2.690339E0,2.5511973E0,5.9394355E0,3.3094888E0,1.2210898E0,8.205512E0,2.5834582E0,1.2033027E0,2.3711274E0,4.635558E0,1.3056759E0,4.8971868E-1,1.2883489E0,1.9700041E0,3.500615E0,7.462601E-1,2.6897962E0,3.2355845E0,7.8925604E-1,3.08158E-1,6.975036E0,2.2029853E0,6.472936E-1,3.201933E0,8.434761E-1,3.0051165E0,5.5731777E-2,2.9493833E-1,4.0877047E0],"categories":[],"categories_nodes":[],"categories_segments":[],"categories_sizes":[],"default_left":[1,1,1,1,1,1,1,1,1,1,1,1,1,1,1,1,1,1,1,1,1,1,1,0,1,1,1,1,1,1,1,1,1,1,1,1,1,1,1,1,1,1,1,1,1,1,1,0,0,1,1,1,1,1,1,1,1,1,1,1,1,0,0,0,0,0,0,0,0,0,0,0,0,0,0,0,0,0,0,0,0,0,0,0,0,0,0,0,0,0,0,0,0,0,0,0,0,0,0,0,0,0,0,0,0,0,0,0,0,0,0,0,0,0,0,0,0],"id":1,"left_children":[1,3,5,7,9,11,13,15,17,19,21,23,25,27,29,31,33,35,37,39,41,43,45,-1,47,49,51,53,55,57,59,61,63,65,67,69,71,73,75,77,79,81,83,85,87,89,91,-1,-1,93,95,97,99,101,103,105,107,109,111,113,115,-1,-1,-1,-1,-1,-1,-1,-1,-1,-1,-1,-1,-1,-1,-1,-1,-1,-1,-1,-1,-1,-1,-1,-1,-1,-1,-1,-1,-1,-1,-1,-1,-1,-1,-1,-1,-1,-1,-1,-1,-1,-1,-1,-1,-1,-1,-1,-1,-1,-1,-1,-1,-1,-1,-1,-1],"loss_changes":[4.878383E3,1.7492578E3,6.1103906E2,1.2416797E3,5.563545E2,1.570592E2,3.6303223E2,7.5260547E2,4.5080273E2,1.6694048E2,3.948545E2,1.7225272E2,1.6132556E2,2.7663672E2,1.01816895E2,7.042344E2,2.196919E2,3.19958E2,1.9766766E2,5.4318657E1,1.5124942E2,3.497046E2,1.4678369E2,0E0,3.253543E1,2.1594055E2,4.905307E1,2.5150684E2,1.6513126E2,6.609778E1,9.300549E1,6.3302734E2,7.436113E2,2.2315039E2,7.062839E1,3.6175854E2,1.4749731E2,7.7038475E1,1.7477682E2,1.5770195E1,6.669659E1,1.6097868E2,1.937132E2,2.614331E2,2.6360913E2,2.7771606E2,9.86633E1,0E0,0E0,1.1313019E2,1.2750354E2,6.925389E1,3.383525E1,1.8731445E2,9.869357E1,6.734064E1,9.388394E1,7.590564E1,1.1266165E2,9.7447876E1,4.9205143E1,0E0,0E0,0E0,0E0,0E0,0E0,0E0,0E0,0E0,0E0,0E0,0E0,0E0,0E0,0E0,0E0,0E0,0E0,0E0,0E0,0E0,0E0,0E0,0E0,0E0,0E0,0E0,0E0,0E0,0E0,0E0,0E0,0E0,0E0,0E0,0E0,0E0,0E0,0E0,0E0,0E0,0E0,0E0,0E0,0E0,0E0,0E0,0E0,0E0,0E0,0E0,0E0,0E0,0E0,0E0,0E0],"parents":[2147483647,0,0,1,1,2,2,3,3,4,4,5,5,6,6,7,7,8,8,9,9,10,10,11,11,12,12,13,13,14,14,15,15,16,16,17,17,18,18,19,19,20,20,21,21,22,22,24,24,25,25,26,26,27,27,28,28,29,29,30,30,31,31,32,32,33,33,34,34,35,35,36,36,37,37,38,38,39,39,40,40,41,41,42,42,43,43,44,44,45,45,46,46,49,49,50,50,51,51,52,52,53,53,54,54,55,55,56,56,57,57,58,58,59,59,60,60],"right_children":[2,4,6,8,10,12,14,16,18,20,22,24,26,28,30,32,34,36,38,40,42,44,46,-1,48,50,52,54,56,58,60,62,64,66,68,70,72,74,76,78,80,82,84,86,88,90,92,-1,-1,94,96,98,100,102,104,106,108,110,112,114,116,-1,-1,-1,-1,-1,-1,-1,-1,-1,-1,-1,-1,-1,-1,-1,-1,-1,-1,-1,-1,-1,-1,-1,-1,-1,-1,-1,-1,-1,-1,-1,-1,-1,-1,-1,-1,-1,-1,-1,-1,-1,-1,-1,-1,-1,-1,-1,-1,-1,-1,-1,-1,-1,-1,-1,-1],"split_conditions":[1.1004165E4,2.01E3,1.5E0,5.905E2,1.0328866E0,1.106763E4,1.30491E4,2.0135E3,2.95E1,4.65E1,5.415E2,2.5E0,6.29195E2,4.9E1,1.85E1,4.2034003E2,1.4315252E0,2.273E3,3.16E3,9.3872E2,1.15E1,5.5E0,9.937125E3,-3.968E-3,3.23495E2,6.155E-2,4.59E2,3.35E3,1.25E1,1.481077E4,5.65E1,1.15E1,6.649915E3,5E-1,1.320745E5,1.3756285E0,1.5E0,1.2105758E0,1.35E1,2.0145E3,7.5299E2,1.1483E4,5E-1,1.416E3,1.5E0,3.375E2,1.93E3,9.3716085E-3,8.08548E-2,3.8727002E2,5E-1,6.99245E2,9.70115E2,1.127388E4,1.25E1,1.119352E4,1.19673E3,4E1,2.107E3,1.4981668E0,5.3645E-1,5.083785E-2,7.126682E-2,1.8786652E-2,4.7565784E-2,2.0465136E-2,4.201114E-2,2.351201E-2,-1.9465043E-3,6.311305E-2,3.1326983E-2,1.5686346E-2,3.472736E-2,2.8900227E-2,1.7453623E-3,4.947448E-2,3.3296456E-3,7.0864666E-4,1.0443444E-2,-6.7645765E-4,4.8642702E-2,5.0644055E-2,6.333267E-3,1.1561867E-1,-3.311111E-3,7.6259146E-3,3.646042E-2,6.5682754E-2,2.690339E-2,2.5511973E-2,5.9394352E-2,3.3094887E-2,1.2210898E-2,8.205512E-2,2.583458E-2,1.2033028E-2,2.3711273E-2,4.635558E-2,1.3056759E-2,4.8971865E-3,1.2883489E-2,1.9700041E-2,3.5006147E-2,7.4626007E-3,2.6897961E-2,3.2355845E-2,7.89256E-3,3.08158E-3,6.975036E-2,2.2029852E-2,6.472936E-3,3.201933E-2,8.434761E-3,3.0051164E-2,5.5731775E-4,2.949383E-3,4.0877044E-2],"split_indices":[6,31,19,10,11,6,6,9,29,22,10,20,3,29,20,3,11,7,1,3,25,19,6,0,2,12,10,31,26,6,29,20,6,19,5,11,19,11,13,9,4,14,0,7,24,0,7,0,0,2,19,3,3,6,20,6,4,29,7,11,12,0,0,0,0,0,0,0,0,0,0,0,0,0,0,0,0,0,0,0,0,0,0,0,0,0,0,0,0,0,0,0,0,0,0,0,0,0,0,0,0,0,0,0,0,0,0,0,0,0,0,0,0,0,0,0,0],"split_type":[0,0,0,0,0,0,0,0,0,0,0,0,0,0,0,0,0,0,0,0,0,0,0,0,0,0,0,0,0,0,0,0,0,0,0,0,0,0,0,0,0,0,0,0,0,0,0,0,0,0,0,0,0,0,0,0,0,0,0,0,0,0,0,0,0,0,0,0,0,0,0,0,0,0,0,0,0,0,0,0,0,0,0,0,0,0,0,0,0,0,0,0,0,0,0,0,0,0,0,0,0,0,0,0,0,0,0,0,0,0,0,0,0,0,0,0,0],"sum_hessian":[6.396E3,3.925E3,2.471E3,2.87E3,1.055E3,7.7E2,1.701E3,2.423E3,4.47E2,1.54E2,9.01E2,1.2E1,7.58E2,1.034E3,6.67E2,1.993E3,4.3E2,3.19E2,1.28E2,1.11E2,4.3E1,5.03E2,3.98E2,4E0,8E0,4.04E2,3.54E2,9.17E2,1.17E2,4.51E2,2.16E2,7.02E2,1.291E3,3.55E2,7.5E1,1.51E2,1.68E2,9.3E1,3.5E1,1.01E2,1E1,3.8E1,5E0,4.07E2,9.6E1,2.54E2,1.44E2,1E0,7E0,1.6E1,3.88E2,9E1,2.64E2,8.11E2,1.06E2,1.07E2,1E1,2.88E2,1.63E2,1.88E2,2.8E1,4.58E2,2.44E2,9.9E1,1.192E3,6.1E1,2.94E2,6.2E1,1.3E1,6.8E1,8.3E1,8.2E1,8.6E1,1.1E1,8.2E1,2.2E1,1.3E1,8.1E1,2E1,5E0,5E0,1.1E1,2.7E1,3E0,2E0,3.5E1,3.72E2,7E1,2.6E1,2.27E2,2.7E1,2.8E1,1.16E2,7E0,9E0,2.21E2,1.67E2,6E0,8.4E1,1.9E2,7.4E1,9.5E1,7.16E2,5.7E1,4.9E1,1.2E1,9.5E1,3E0,7E0,2.51E2,3.7E1,2.3E1,1.4E2,1.76E2,1.2E1,2.5E1,3E0],"tree_param":{"num_deleted":"0","num_feature":"33","num_nodes":"117","size_leaf_vector":"0"}},{"base_weights":[3.309749E0,3.9959753E0,2.218554E0,4.397465E0,2.9006398E0,1.4836382E0,2.5501647E0,4.6779327E0,2.8701198E0,1.1529523E0,3.1977472E0,4.9242063E0,1.422754E0,2.9192111E0,1.9745463E0,4.9361725E0,3.4723458E0,3.4993339E0,1.2870299E0,5.001409E-1,2.7884507E0,3.784298E0,2.4488268E0,-3.936256E-1,7.3314238E0,3.3206177E0,1.3097554E0,3.1025653E0,1.4680384E0,1.6987604E0,2.5398953E0,5.200073E0,3.5799E0,3.6994858E0,1.2215148E0,4.5508876E0,2.5328517E0,5.1814634E-1,3.2589192E0,2.6937124E-1,2.5945377E0,1.994306E0,7.48565E0,3.366659E0,5.5019526E0,2.9042444E0,1.6310314E0,9.3247503E-1,8.014732E0,7.168645E0,2.2043571E0,1.6937366E0,8.531542E-1,3.2907948E0,1.6451358E0,1.0804918E0,5.1395836E0,1.9860916E0,1.1820683E0,2.7901292E0,8.2147765E-1,3.424226E0,5.4606667E0,3.8364842E0,1.0866072E0,1.8530687E0,4.0893917E0,3.6202278E0,6.211849E-1,6.249107E0,3.1017444E0,1.865261E0,3.8826714E0,2.8635309E0,1.728119E-1,4.900125E0,3.2987276E-1,7.016467E-2,1.0343983E0,-6.708205E-2,4.8237343E0,5.017982E0,6.272196E-1,1.1475153E1,-3.289037E-1,7.551773E-1,3.6096795E0,6.5035176E0,2.664432E0,2.5257971E0,5.8821626E0,3.277535E0,1.2089833E0,8.133714E0,-2.759519E-1,7.2852783E0,1.6591345E0,1.1913239E0,2.3475573E0,1.403259E0,4.885698E-1,1.9505093E0,3.4656577E0,7.389261E-1,2.6634362E0,3.2057178E0,7.814457E-1,3.0584684E-1,6.9140043E0,2.181043E0,6.4099103E-1,3.1712477E0,8.351012E-1,2.975235E0,5.521737E-2,2.9210243E-1,4.0570474E0],"categories":[],"categories_nodes":[],"categories_segments":[],"categories_sizes":[],"default_left":[1,1,1,1,1,1,1,1,1,1,1,1,1,1,1,1,1,1,1,1,1,1,1,0,1,1,1,1,1,1,1,1,1,1,1,1,1,1,1,1,1,1,1,1,1,1,1,0,0,1,1,1,1,1,1,1,1,1,1,1,1,0,0,0,0,0,0,0,0,0,0,0,0,0,0,0,0,0,0,0,0,0,0,0,0,0,0,0,0,0,0,0,0,0,0,0,0,0,0,0,0,0,0,0,0,0,0,0,0,0,0,0,0,0,0,0,0],"id":2,"left_children":[1,3,5,7,9,11,13,15,17,19,21,23,25,27,29,31,33,35,37,39,41,43,45,-1,47,49,51,53,55,57,59,61,63,65,67,69,71,73,75,77,79,81,83,85,87,89,91,-1,-1,93,95,97,99,101,103,105,107,109,111,113,115,-1,-1,-1,-1,-1,-1,-1,-1,-1,-1,-1,-1,-1,-1,-1,-1,-1,-1,-1,-1,-1,-1,-1,-1,-1,-1,-1,-1,-1,-1,-1,-1,-1,-1,-1,-1,-1,-1,-1,-1,-1,-1,-1,-1,-1,-1,-1,-1,-1,-1,-1,-1,-1,-1,-1,-1],"loss_changes":[4.781258E3,1.7137617E3,5.986582E2,1.2164297E3,5.446416E2,1.545E2,3.5579102E2,7.3753125E2,4.417505E2,1.6409453E2,3.8696387E2,1.6930112E2,1.5842297E2,2.708379E2,9.983667E1,6.950703E2,2.1583154E2,3.136914E2,1.9389519E2,5.3433304E1,1.4920264E2,3.4302588E2,1.4386597E2,0E0,3.1878601E1,1.6460455E2,1.2443921E2,2.4642285E2,1.6234831E2,6.475696E1,9.101941E1,7.5275E2,2.0566602E2,2.7391406E2,5.6791965E1,3.546831E2,1.4504834E2,7.5639694E1,1.7144165E2,1.5472061E1,6.55896E1,1.5806404E2,1.9083133E2,2.5620898E2,2.583423E2,2.7252393E2,9.679855E1,0E0,0E0,6.6905426E1,8.210066E1,1.24984985E2,6.549907E1,1.8354492E2,9.677081E1,6.61333E1,9.223328E1,7.438611E1,1.105412E2,9.551672E1,4.848701E1,0E0,0E0,0E0,0E0,0E0,0E0,0E0,0E0,0E0,0E0,0E0,0E0,0E0,0E0,0E0,0E0,0E0,0E0,0E0,0E0,0E0,0E0,0E0,0E0,0E0,0E0,0E0,0E0,0E0,0E0,0E0,0E0,0E0,0E0,0E0,0E0,0E0,0E0,0E0,0E0,0E0,0E0,0E0,0E0,0E0,0E0,0E0,0E0,0E0,0E0,0E0,0E0,0E0,0E0,0E0,0E0],"parents":[2147483647,0,0,1,1,2,2,3,3,4,4,5,5,6,6,7,7,8,8,9,9,10,10,11,11,12,12,13,13,14,14,15,15,16,16,17,17,18,18,19,19,20,20,21,21,22,22,24,24,25,25,26,26,27,27,28,28,29,29,30,30,31,31,32,32,33,33,34,34,35,35,36,36,37,37,38,38,39,39,40,40,41,41,42,42,43,43,44,44,45,45,46,46,49,49,50,50,51,51,52,52,53,53,54,54,55,55,56,56,57,57,58,58,59,59,60,60],"right_children":[2,4,6,8,10,12,14,16,18,20,22,24,26,28,30,32,34,36,38,40,42,44,46,-1,48,50,52,54,56,58,60,62,64,66,68,70,72,74,76,78,80,82,84,86,88,90,92,-1,-1,94,96,98,100,102,104,106,108,110,112,114,116,-1,-1,-1,-1,-1,-1,-1,-1,-1,-1,-1,-1,-1,-1,-1,-1,-1,-1,-1,-1,-1,-1,-1,-1,-1,-1,-1,-1,-1,-1,-1,-1,-1,-1,-1,-1,-1,-1,-1,-1,-1,-1,-1,-1,-1,-1,-1,-1,-1,-1,-1,-1,-1,-1,-1,-1],"split_conditions":[1.1004165E4,2.01E3,1.5E0,5.905E2,1.0328866E0,1.106763E4,1.30491E4,2.0135E3,2.95E1,4.65E1,5.415E2,2.5E0,6.39E-2,4.9E1,1.85E1,1.0054445E4,1.4874957E0,2.273E3,3.16E3,9.3872E2,1.15E1,5.5E0,9.937125E3,-3.936256E-3,3.23495E2,4.8558002E2,6.29195E2,3.35E3,1.25E1,1.481077E4,5.65E1,6.62633E3,2.5E0,5E-1,2.97E2,1.3756285E0,3.1595E3,1.2105758E0,1.35E1,2.0145E3,7.5299E2,1.1483E4,5E-1,1.416E3,1.5E0,3.375E2,1.93E3,9.32475E-3,8.014732E-2,3.9339502E2,1.1433404E4,5E-1,5.36E2,1.127388E4,1.25E1,1.119352E4,1.19673E3,4E1,2.107E3,1.4981668E0,5.3645E-1,3.424226E-2,5.4606665E-2,3.8364843E-2,1.0866072E-2,1.8530687E-2,4.0893916E-2,3.6202278E-2,6.211849E-3,6.2491067E-2,3.1017443E-2,1.8652609E-2,3.882671E-2,2.8635308E-2,1.7281189E-3,4.900125E-2,3.2987276E-3,7.016467E-4,1.0343983E-2,-6.708205E-4,4.8237342E-2,5.017982E-2,6.272196E-3,1.14751525E-1,-3.289037E-3,7.551773E-3,3.6096793E-2,6.503517E-2,2.664432E-2,2.5257971E-2,5.8821626E-2,3.277535E-2,1.2089833E-2,8.133714E-2,-2.7595188E-3,7.285278E-2,1.6591344E-2,1.1913238E-2,2.3475572E-2,1.403259E-2,4.8856977E-3,1.9505093E-2,3.4656577E-2,7.389261E-3,2.6634362E-2,3.2057177E-2,7.814457E-3,3.0584682E-3,6.914004E-2,2.181043E-2,6.40991E-3,3.1712476E-2,8.351012E-3,2.975235E-2,5.521737E-4,2.921024E-3,4.057047E-2],"split_indices":[6,31,19,10,11,6,6,9,29,22,10,20,12,29,20,6,11,7,1,3,25,19,6,0,2,3,3,31,26,6,29,6,24,19,14,11,1,11,13,9,4,14,0,7,24,0,7,0,0,2,6,19,10,6,20,6,4,29,7,11,12,0,0,0,0,0,0,0,0,0,0,0,0,0,0,0,0,0,0,0,0,0,0,0,0,0,0,0,0,0,0,0,0,0,0,0,0,0,0,0,0,0,0,0,0,0,0,0,0,0,0,0,0,0,0,0,0],"split_type":[0,0,0,0,0,0,0,0,0,0,0,0,0,0,0,0,0,0,0,0,0,0,0,0,0,0,0,0,0,0,0,0,0,0,0,0,0,0,0,0,0,0,0,0,0,0,0,0,0,0,0,0,0,0,0,0,0,0,0,0,0,0,0,0,0,0,0,0,0,0,0,0,0,0,0,0,0,0,0,0,0,0,0,0,0,0,0,0,0,0,0,0,0,0,0,0,0,0,0,0,0,0,0,0,0,0,0,0,0,0,0,0,0,0,0,0,0],"sum_hessian":[6.396E3,3.925E3,2.471E3,2.87E3,1.055E3,7.7E2,1.701E3,2.423E3,4.47E2,1.54E2,9.01E2,1.2E1,7.58E2,1.034E3,6.67E2,1.993E3,4.3E2,3.19E2,1.28E2,1.11E2,4.3E1,5.03E2,3.98E2,4E0,8E0,4.1E1,7.17E2,9.17E2,1.17E2,4.51E2,2.16E2,1.666E3,3.27E2,3.9E2,4E1,1.51E2,1.68E2,9.3E1,3.5E1,1.01E2,1E1,3.8E1,5E0,4.07E2,9.6E1,2.54E2,1.44E2,1E0,7E0,8E0,3.3E1,3.88E2,3.29E2,8.11E2,1.06E2,1.07E2,1E1,2.88E2,1.63E2,1.88E2,2.8E1,2.15E2,1.451E3,2.96E2,3.1E1,6.9E1,3.21E2,7E0,3.3E1,6.8E1,8.3E1,1.14E2,5.4E1,1.1E1,8.2E1,2.2E1,1.3E1,8.1E1,2E1,5E0,5E0,1.1E1,2.7E1,3E0,2E0,3.5E1,3.72E2,7E1,2.6E1,2.27E2,2.7E1,2.8E1,1.16E2,7E0,1E0,2E0,3.1E1,2.21E2,1.67E2,1.3E2,1.99E2,9.5E1,7.16E2,5.7E1,4.9E1,1.2E1,9.5E1,3E0,7E0,2.51E2,3.7E1,2.3E1,1.4E2,1.76E2,1.2E1,2.5E1,3E0],"tree_param":{"num_deleted":"0","num_feature":"33","num_nodes":"117","size_leaf_vector":"0"}},{"base_weights":[3.2769039E0,3.9562612E0,2.1966314E0,4.353656E0,2.8720982E0,1.4692011E0,2.5248642E0,4.631253E0,2.8419402E0,1.1428843E0,3.1660628E0,4.8815436E0,1.4088194E0,2.8902125E0,1.9550136E0,4.8868804E0,3.4378586E0,3.4648123E0,1.2748003E0,4.956628E-1,2.7643824E0,3.7467237E0,2.4246616E0,-3.9047658E-1,7.26805E0,3.291412E0,1.2967335E0,3.0716357E0,1.4543078E0,1.6819239E0,2.5148363E0,5.6943E0,4.4437666E0,3.7625272E0,1.871807E0,4.505994E0,2.5078633E0,5.132879E-1,3.2277827E0,2.6678583E-1,2.5729165E0,1.9758104E0,7.4293704E0,3.3330991E0,5.4478784E0,3.007819E0,1.7929345E0,9.278127E-1,7.9446034E0,7.105689E0,2.1849442E0,1.6768901E0,8.4468E-1,3.2579536E0,1.6290023E0,1.0700561E0,5.0947514E0,2.3392553E0,1.4559128E0,2.7623882E0,8.147626E-1,4.9825335E0,7.004531E0,1.8259629E0,4.659472E0,2.0081468E0,4.11849E0,2.3047073E0,-2.09945E-1,6.1875215E0,3.0710962E0,1.5298483E0,3.412086E0,2.8372817E0,1.7110461E-1,4.8532543E0,3.2680964E-1,6.947157E-2,1.0245469E0,-6.652304E-2,4.783537E0,4.971984E0,6.211714E-1,1.138909E1,-3.2671103E-1,7.4783534E-1,3.5736794E0,6.4393983E0,2.6387746E0,2.6225648E0,7.136671E0,1.5703635E0,3.8819413E0,8.062543E0,-2.7457213E-1,3.832076E0,6.828888E-1,1.1794642E0,2.3242214E0,1.3893335E0,4.8370856E-1,3.010133E0,4.2262073E0,7.316643E-1,2.6373346E0,3.1761265E0,7.7371264E-1,3.03553E-1,6.853507E0,2.652061E0,2.5756785E-1,1.8114519E0,9.1189903E-1,2.9456508E0,5.470767E-2,2.8929374E-1,4.0266194E0],"categories":[],"categories_nodes":[],"categories_segments":[],"categories_sizes":[],"default_left":[1,1,1,1,1,1,1,1,1,1,1,1,1,1,1,1,1,1,1,1,1,1,1,0,1,1,1,1,1,1,1,1,1,1,1,1,1,1,1,1,1,1,1,1,1,1,1,0,0,1,1,1,1,1,1,1,1,1,1,1,1,0,0,0,0,0,0,0,0,0,0,0,0,0,0,0,0,0,0,0,0,0,0,0,0,0,0,0,0,0,0,0,0,0,0,0,0,0,0,0,0,0,0,0,0,0,0,0,0,0,0,0,0,0,0,0,0],"id":3,"left_children":[1,3,5,7,9,11,13,15,17,19,21,23,25,27,29,31,33,35,37,39,41,43,45,-1,47,49,51,53,55,57,59,61,63,65,67,69,71,73,75,77,79,81,83,85,87,89,91,-1,-1,93,95,97,99,101,103,105,107,109,111,113,115,-1,-1,-1,-1,-1,-1,-1,-1,-1,-1,-1,-1,-1,-1,-1,-1,-1,-1,-1,-1,-1,-1,-1,-1,-1,-1,-1,-1,-1,-1,-1,-1,-1,-1,-1,-1,-1,-1,-1,-1,-1,-1,-1,-1,-1,-1,-1,-1,-1,-1,-1,-1,-1,-1,-1,-1],"loss_changes":[4.6860156E3,1.6789727E3,5.865205E2,1.1916484E3,5.331758E2,1.5198169E2,3.486963E2,7.226758E2,4.3288794E2,1.612974E2,3.792295E2,1.6640027E2,1.5589014E2,2.6515723E2,9.789526E1,6.881094E2,2.1209814E2,3.0753418E2,1.9019464E2,5.2562378E1,1.4718286E2,3.364756E2,1.4159717E2,0E0,3.1234436E1,1.6173022E2,1.2197266E2,2.4144043E2,1.5961227E2,6.374536E1,8.9075195E1,6.207012E2,7.210508E2,2.1404932E2,6.8974365E1,3.477461E2,1.4423401E2,7.426633E1,1.6817007E2,1.51795635E1,6.4501E1,1.5520215E2,1.8799231E2,2.5108887E2,2.5318018E2,3.089591E2,8.4104614E1,0E0,0E0,6.577026E1,8.150197E1,1.2251648E2,6.420741E1,1.821211E2,9.488553E1,6.494757E1,9.06116E1,7.35495E1,6.391687E1,9.36239E1,4.777932E1,0E0,0E0,0E0,0E0,0E0,0E0,0E0,0E0,0E0,0E0,0E0,0E0,0E0,0E0,0E0,0E0,0E0,0E0,0E0,0E0,0E0,0E0,0E0,0E0,0E0,0E0,0E0,0E0,0E0,0E0,0E0,0E0,0E0,0E0,0E0,0E0,0E0,0E0,0E0,0E0,0E0,0E0,0E0,0E0,0E0,0E0,0E0,0E0,0E0,0E0,0E0,0E0,0E0,0E0,0E0,0E0],"parents":[2147483647,0,0,1,1,2,2,3,3,4,4,5,5,6,6,7,7,8,8,9,9,10,10,11,11,12,12,13,13,14,14,15,15,16,16,17,17,18,18,19,19,20,20,21,21,22,22,24,24,25,25,26,26,27,27,28,28,29,29,30,30,31,31,32,32,33,33,34,34,35,35,36,36,37,37,38,38,39,39,40,40,41,41,42,42,43,43,44,44,45,45,46,46,49,49,50,50,51,51,52,52,53,53,54,54,55,55,56,56,57,57,58,58,59,59,60,60],"right_children":[2,4,6,8,10,12,14,16,18,20,22,24,26,28,30,32,34,36,38,40,42,44,46,-1,48,50,52,54,56,58,60,62,64,66,68,70,72,74,76,78,80,82,84,86,88,90,92,-1,-1,94,96,98,100,102,104,106,108,110,112,114,116,-1,-1,-1,-1,-1,-1,-1,-1,-1,-1,-1,-1,-1,-1,-1,-1,-1,-1,-1,-1,-1,-1,-1,-1,-1,-1,-1,-1,-1,-1,-1,-1,-1,-1,-1,-1,-1,-1,-1,-1,-1,-1,-1,-1,-1,-1,-1,-1,-1,-1,-1,-1,-1,-1,-1,-1],"split_conditions":[1.1004165E4,2.01E3,1.5E0,5.905E2,1.0328866E0,1.106763E4,1.30491E4,2.0135E3,2.95E1,4.65E1,5.415E2,2.5E0,6.39E-2,4.9E1,1.85E1,4.2034003E2,1.4315252E0,2.273E3,3.16E3,9.3872E2,1.15E1,5.5E0,9.45382E3,-3.9047657E-3,3.23495E2,4.8558002E2,6.29195E2,3.35E3,1.25E1,5.035E2,5.65E1,1.15E1,6.649915E3,5E-1,1.320745E5,1.3756285E0,1.5E0,1.2105758E0,1.35E1,2.0145E3,7.5299E2,1.1483E4,5E-1,1.416E3,1.5E0,3.75E2,1.05E1,9.278127E-3,7.944603E-2,3.9339502E2,2.0105E3,5E-1,5.36E2,4.0171E2,1.25E1,1.119352E4,1.19673E3,1.5125793E0,7.0412E2,1.4981668E0,5.3645E-1,4.9825333E-2,7.004531E-2,1.8259628E-2,4.659472E-2,2.0081468E-2,4.1184902E-2,2.3047073E-2,-2.09945E-3,6.1875213E-2,3.0710962E-2,1.5298483E-2,3.4120858E-2,2.8372817E-2,1.7110461E-3,4.853254E-2,3.2680964E-3,6.9471565E-4,1.02454685E-2,-6.652304E-4,4.783537E-2,4.9719837E-2,6.211714E-3,1.13890894E-1,-3.2671103E-3,7.478353E-3,3.5736796E-2,6.439398E-2,2.6387746E-2,2.6225647E-2,7.136671E-2,1.5703635E-2,3.8819414E-2,8.062543E-2,-2.7457213E-3,3.832076E-2,6.828888E-3,1.1794642E-2,2.3242213E-2,1.3893334E-2,4.8370855E-3,3.010133E-2,4.226207E-2,7.316643E-3,2.6373345E-2,3.1761263E-2,7.737126E-3,3.0355297E-3,6.853507E-2,2.652061E-2,2.5756785E-3,1.8114518E-2,9.11899E-3,2.9456507E-2,5.470767E-4,2.8929373E-3,4.0266193E-2],"split_indices":[6,31,19,10,11,6,6,9,29,22,10,20,12,29,20,3,11,7,1,3,25,19,6,0,2,3,3,31,26,10,29,20,6,19,5,11,19,11,13,9,4,14,0,7,24,30,25,0,0,2,9,19,10,2,20,6,4,11,3,11,12,0,0,0,0,0,0,0,0,0,0,0,0,0,0,0,0,0,0,0,0,0,0,0,0,0,0,0,0,0,0,0,0,0,0,0,0,0,0,0,0,0,0,0,0,0,0,0,0,0,0,0,0,0,0,0,0],"split_type":[0,0,0,0,0,0,0,0,0,0,0,0,0,0,0,0,0,0,0,0,0,0,0,0,0,0,0,0,0,0,0,0,0,0,0,0,0,0,0,0,0,0,0,0,0,0,0,0,0,0,0,0,0,0,0,0,0,0,0,0,0,0,0,0,0,0,0,0,0,0,0,0,0,0,0,0,0,0,0,0,0,0,0,0,0,0,0,0,0,0,0,0,0,0,0,0,0,0,0,0,0,0,0,0,0,0,0,0,0,0,0,0,0,0,0,0,0],"sum_hessian":[6.396E3,3.925E3,2.471E3,2.87E3,1.055E3,7.7E2,1.701E3,2.423E3,4.47E2,1.54E2,9.01E2,1.2E1,7.58E2,1.034E3,6.67E2,1.993E3,4.3E2,3.19E2,1.28E2,1.11E2,4.3E1,5.03E2,3.98E2,4E0,8E0,4.1E1,7.17E2,9.17E2,1.17E2,4.51E2,2.16E2,7.02E2,1.291E3,3.55E2,7.5E1,1.51E2,1.68E2,9.3E1,3.5E1,1.01E2,1E1,3.8E1,5E0,4.07E2,9.6E1,2.05E2,1.93E2,1E0,7E0,8E0,3.3E1,3.88E2,3.29E2,8.11E2,1.06E2,1.07E2,1E1,1.13E2,3.38E2,1.88E2,2.8E1,4.58E2,2.44E2,9.9E1,1.192E3,6.1E1,2.94E2,6.2E1,1.3E1,6.8E1,8.3E1,8.2E1,8.6E1,1.1E1,8.2E1,2.2E1,1.3E1,8.1E1,2E1,5E0,5E0,1.1E1,2.7E1,3E0,2E0,3.5E1,3.72E2,7E1,2.6E1,1.89E2,1.6E1,1.76E2,1.7E1,7E0,1E0,1.5E1,1.8E1,2.21E2,1.67E2,1.3E2,1.99E2,6.49E2,1.62E2,5.7E1,4.9E1,1.2E1,9.5E1,3E0,7E0,9.8E1,1.5E1,2.03E2,1.35E2,1.76E2,1.2E1,2.5E1,3E0],"tree_param":{"num_deleted":"0","num_feature":"33","num_nodes":"117","size_leaf_vector":"0"}},{"base_weights":[3.2443864E0,3.9169536E0,2.1749113E0,4.31029E0,2.8438609E0,1.4548484E0,2.4998193E0,4.58505E0,2.8140206E0,1.1329049E0,3.1347194E0,4.839253E0,1.3949642E0,2.86152E0,1.9356573E0,4.8381042E0,3.4036708E0,3.430608E0,1.2626871E0,4.9122506E-1,2.740524E0,3.7095222E0,2.4007962E0,-3.8735276E-1,7.2052283E0,3.2614272E0,1.2838411E0,3.041035E0,1.440706E0,1.6652292E0,2.4900253E0,5.0989685E0,3.497557E0,6.64169E0,3.238224E0,4.461543E0,2.483077E0,5.0847507E-1,3.1969438E0,2.6422524E-1,2.5514755E0,1.9574864E0,7.373514E0,3.299874E0,5.3943357E0,2.0250778E0,3.3818357E0,9.231736E-1,7.875088E0,7.0432854E0,2.1644225E0,1.6602113E0,8.3629E-1,3.2254632E0,1.6130272E0,1.0597212E0,5.05031E0,1.9493555E0,1.1543895E0,2.7349231E0,8.0810314E-1,3.3514056E0,5.3554254E0,3.7515547E0,1.0308411E0,8.468562E0,-5.326405E-1,3.4549603E0,1.1927558E0,6.126543E0,3.040751E0,1.8230941E0,3.8178945E0,2.8112733E0,1.6941416E-1,4.806832E0,3.2377496E-1,6.878535E-2,1.0147893E0,-6.596869E-2,4.743674E0,4.9264073E0,6.1518157E-1,1.1303671E1,-3.2453296E-1,7.405647E-1,3.5380383E0,6.375911E0,2.6133642E0,9.7794974E-1,2.551713E0,7.097746E0,2.5185018E0,7.991996E0,-2.7319926E-1,7.2111626E0,1.6236526E0,4.04047E-1,1.9109726E0,1.3755463E0,4.7889563E-1,1.9009129E0,3.3983102E0,7.2447383E-1,2.6114886E0,3.1468084E0,7.660561E-1,3.0127633E-1,6.7935386E0,2.1417646E0,6.2208074E-1,3.1256642E0,8.106662E-1,2.9163606E0,5.4202672E-2,2.8651205E-1,3.9964197E0],"categories":[],"categories_nodes":[],"categories_segments":[],"categories_sizes":[],"default_left":[1,1,1,1,1,1,1,1,1,1,1,1,1,1,1,1,1,1,1,1,1,1,1,0,1,1,1,1,1,1,1,1,1,1,1,1,1,1,1,1,1,1,1,1,1,1,1,0,0,1,1,1,1,1,1,1,1,1,1,1,1,0,0,0,0,0,0,0,0,0,0,0,0,0,0,0,0,0,0,0,0,0,0,0,0,0,0,0,0,0,0,0,0,0,0,0,0,0,0,0,0,0,0,0,0,0,0,0,0,0,0,0,0,0,0,0,0],"id":4,"left_children":[1,3,5,7,9,11,13,15,17,19,21,23,25,27,29,31,33,35,37,39,41,43,45,-1,47,49,51,53,55,57,59,61,63,65,67,69,71,73,75,77,79,81,83,85,87,89,91,-1,-1,93,95,97,99,101,103,105,107,109,111,113,115,-1,-1,-1,-1,-1,-1,-1,-1,-1,-1,-1,-1,-1,-1,-1,-1,-1,-1,-1,-1,-1,-1,-1,-1,-1,-1,-1,-1,-1,-1,-1,-1,-1,-1,-1,-1,-1,-1,-1,-1,-1,-1,-1,-1,-1,-1,-1,-1,-1,-1,-1,-1,-1,-1,-1,-1],"loss_changes":[4.5928047E3,1.6448594E3,5.7469727E2,1.1674062E3,5.219629E2,1.4950977E2,3.4176758E2,7.081953E2,4.2419482E2,1.5854817E2,3.716123E2,1.6354926E2,1.5323499E2,2.5960254E2,9.599805E1,6.7947266E2,2.093877E2,3.0151123E2,1.8656476E2,5.17056E1,1.4518988E2,3.300503E2,1.402207E2,0E0,3.0602783E1,1.5900137E2,1.1955505E2,2.365664E2,1.5692216E2,6.3354248E1,8.717212E1,7.2915625E2,2.0163818E2,2.6664246E2,1.7852979E2,3.4094507E2,1.4192126E2,7.291789E1,1.6496097E2,1.4892596E1,6.3430466E1,1.5239204E2,1.8519562E2,2.460708E2,2.4812158E2,1.5797778E2,3.3180396E2,0E0,0E0,6.465445E1,8.108186E1,1.2176184E2,6.2941223E1,1.7944434E2,9.303696E1,6.3783073E1,8.90184E1,7.247241E1,1.0858812E2,9.176831E1,4.708191E1,0E0,0E0,0E0,0E0,0E0,0E0,0E0,0E0,0E0,0E0,0E0,0E0,0E0,0E0,0E0,0E0,0E0,0E0,0E0,0E0,0E0,0E0,0E0,0E0,0E0,0E0,0E0,0E0,0E0,0E0,0E0,0E0,0E0,0E0,0E0,0E0,0E0,0E0,0E0,0E0,0E0,0E0,0E0,0E0,0E0,0E0,0E0,0E0,0E0,0E0,0E0,0E0,0E0,0E0,0E0,0E0],"parents":[2147483647,0,0,1,1,2,2,3,3,4,4,5,5,6,6,7,7,8,8,9,9,10,10,11,11,12,12,13,13,14,14,15,15,16,16,17,17,18,18,19,19,20,20,21,21,22,22,24,24,25,25,26,26,27,27,28,28,29,29,30,30,31,31,32,32,33,33,34,34,35,35,36,36,37,37,38,38,39,39,40,40,41,41,42,42,43,43,44,44,45,45,46,46,49,49,50,50,51,51,52,52,53,53,54,54,55,55,56,56,57,57,58,58,59,59,60,60],"right_children":[2,4,6,8,10,12,14,16,18,20,22,24,26,28,30,32,34,36,38,40,42,44,46,-1,48,50,52,54,56,58,60,62,64,66,68,70,72,74,76,78,80,82,84,86,88,90,92,-1,-1,94,96,98,100,102,104,106,108,110,112,114,116,-1,-1,-1,-1,-1,-1,-1,-1,-1,-1,-1,-1,-1,-1,-1,-1,-1,-1,-1,-1,-1,-1,-1,-1,-1,-1,-1,-1,-1,-1,-1,-1,-1,-1,-1,-1,-1,-1,-1,-1,-1,-1,-1,-1,-1,-1,-1,-1,-1,-1,-1,-1,-1,-1,-1,-1],"split_conditions":[1.1004165E4,2.01E3,1.5E0,5.905E2,1.0328866E0,1.106763E4,1.30491E4,2.0135E3,2.95E1,4.65E1,5.415E2,2.5E0,6.39E-2,4.9E1,1.85E1,1.0054445E4,7.89E-2,2.273E3,3.16E3,9.3872E2,1.15E1,5.5E0,4.353004E1,-3.8735275E-3,3.23495E2,4.8558002E2,6.29195E2,3.35E3,1.25E1,1.481077E4,5.65E1,6.62633E3,2.5E0,7.5E0,1.4874957E0,1.3756285E0,3.1595E3,1.2105758E0,1.35E1,2.0145E3,7.5299E2,1.1483E4,5E-1,1.416E3,1.5E0,2.0085E3,7.3939453E3,9.231736E-3,7.875088E-2,3.9339502E2,1.1433404E4,1.1171234E0,5.36E2,1.127388E4,1.25E1,1.119352E4,1.19673E3,4E1,2.107E3,1.4981668E0,5.3645E-1,3.3514056E-2,5.355425E-2,3.7515547E-2,1.0308411E-2,8.4685616E-2,-5.326405E-3,3.45496E-2,1.1927558E-2,6.1265428E-2,3.0407509E-2,1.8230941E-2,3.8178943E-2,2.8112732E-2,1.6941415E-3,4.806832E-2,3.2377494E-3,6.8785343E-4,1.0147893E-2,-6.596869E-4,4.7436737E-2,4.9264073E-2,6.1518154E-3,1.1303671E-1,-3.2453295E-3,7.405647E-3,3.5380382E-2,6.375911E-2,2.6133642E-2,9.779497E-3,2.5517128E-2,7.097746E-2,2.5185017E-2,7.991996E-2,-2.7319926E-3,7.211162E-2,1.6236525E-2,4.04047E-3,1.9109726E-2,1.3755463E-2,4.788956E-3,1.9009128E-2,3.39831E-2,7.2447383E-3,2.6114885E-2,3.1468082E-2,7.6605612E-3,3.012763E-3,6.7935385E-2,2.1417646E-2,6.2208073E-3,3.1256642E-2,8.106662E-3,2.9163605E-2,5.420267E-4,2.8651203E-3,3.9964195E-2],"split_indices":[6,31,19,10,11,6,6,9,29,22,10,20,12,29,20,6,12,7,1,3,25,19,30,0,2,3,3,31,26,6,29,6,24,21,11,11,1,11,13,9,4,14,0,7,24,9,6,0,0,2,6,11,10,6,20,6,4,29,7,11,12,0,0,0,0,0,0,0,0,0,0,0,0,0,0,0,0,0,0,0,0,0,0,0,0,0,0,0,0,0,0,0,0,0,0,0,0,0,0,0,0,0,0,0,0,0,0,0,0,0,0,0,0,0,0,0,0],"split_type":[0,0,0,0,0,0,0,0,0,0,0,0,0,0,0,0,0,0,0,0,0,0,0,0,0,0,0,0,0,0,0,0,0,0,0,0,0,0,0,0,0,0,0,0,0,0,0,0,0,0,0,0,0,0,0,0,0,0,0,0,0,0,0,0,0,0,0,0,0,0,0,0,0,0,0,0,0,0,0,0,0,0,0,0,0,0,0,0,0,0,0,0,0,0,0,0,0,0,0,0,0,0,0,0,0,0,0,0,0,0,0,0,0,0,0,0,0],"sum_hessian":[6.396E3,3.925E3,2.471E3,2.87E3,1.055E3,7.7E2,1.701E3,2.423E3,4.47E2,1.54E2,9.01E2,1.2E1,7.58E2,1.034E3,6.67E2,1.993E3,4.3E2,3.19E2,1.28E2,1.11E2,4.3E1,5.03E2,3.98E2,4E0,8E0,4.1E1,7.17E2,9.17E2,1.17E2,4.51E2,2.16E2,1.666E3,3.27E2,1.9E1,4.11E2,1.51E2,1.68E2,9.3E1,3.5E1,1.01E2,1E1,3.8E1,5E0,4.07E2,9.6E1,2.9E2,1.08E2,1E0,7E0,8E0,3.3E1,3.88E2,3.29E2,8.11E2,1.06E2,1.07E2,1E1,2.88E2,1.63E2,1.88E2,2.8E1,2.15E2,1.451E3,2.96E2,3.1E1,1.5E1,4E0,3.71E2,4E1,6.8E1,8.3E1,1.14E2,5.4E1,1.1E1,8.2E1,2.2E1,1.3E1,8.1E1,2E1,5E0,5E0,1.1E1,2.7E1,3E0,2E0,3.5E1,3.72E2,7E1,2.6E1,9.8E1,1.92E2,1.9E1,8.9E1,7E0,1E0,2E0,3.1E1,6.5E1,3.23E2,1.3E2,1.99E2,9.5E1,7.16E2,5.7E1,4.9E1,1.2E1,9.5E1,3E0,7E0,2.51E2,3.7E1,2.3E1,1.4E2,1.76E2,1.2E1,2.5E1,3E0],"tree_param":{"num_deleted":"0","num_feature":"33","num_nodes":"117","size_leaf_vector":"0"}},{"base_weights":[3.2121935E0,3.878033E0,2.153416E0,4.267358E0,2.8158834E0,1.4406778E0,2.4750185E0,2.9548495E0,4.575709E0,1.1230134E0,3.103665E0,4.797331E0,1.3812876E0,2.8322127E0,1.9151305E0,3.5538626E0,1.322909E0,5.0203996E0,3.8020465E0,4.8682722E-1,2.7168734E0,3.6726902E0,2.3771179E0,-3.8425395E-1,7.142952E0,3.2327542E0,1.2710607E0,3.0093381E0,1.4272318E0,1.645494E0,2.4654593E0,5.7205243E0,3.1483128E0,2.2251928E0,2.1540625E-1,5.578301E0,4.3479304E0,2.9676116E0,4.5133996E0,2.6168925E-1,2.5302134E0,1.9393325E0,7.318078E0,3.2669802E0,5.341319E0,2.513113E0,-1.9046721E-1,9.1855776E-1,7.8061814E0,6.981429E0,2.145377E0,1.6436688E0,8.2798326E-1,3.191265E0,1.5972087E0,1.0494863E0,5.006257E0,2.2983367E0,1.4197682E0,2.7077312E0,8.01499E-1,6.533105E0,-5.8103293E-1,3.0669956E0,1.1260605E1,1.8977805E0,1.0214459E1,-3.4786552E-1,2.0677812E0,7.5471354E0,5.0477924E0,1.1442604E0,4.459703E0,3.4183712E0,1.0616386E0,3.195281E0,5.294942E0,1.9310815E0,1.7384586E-1,-6.541896E-2,4.7041435E0,4.8812485E0,6.092495E-1,1.1218894E1,-3.223694E-1,7.333648E-1,3.5027528E0,6.3130503E0,2.5881987E0,3.4547746E0,2.0416589E0,2.6700854E0,-4.669991E-1,7.922066E0,-2.7183327E-1,7.163088E0,1.6079234E0,1.1512786E0,2.2845435E0,1.3618958E0,4.7413063E-1,1.8821018E0,3.3616245E0,7.1735394E-1,2.585896E0,3.117761E0,7.5847536E-1,2.9901677E-1,6.734095E0,2.6082199E0,2.3728988E-1,1.7807587E0,8.664286E-1,2.887362E0,5.370235E-2,2.8375712E-1,3.9664466E0],"categories":[],"categories_nodes":[],"categories_segments":[],"categories_sizes":[],"default_left":[1,1,1,1,1,1,1,1,1,1,1,1,1,1,1,1,1,1,1,1,1,1,1,0,1,1,1,1,1,1,1,1,1,1,1,1,1,1,1,1,1,1,1,1,1,1,1,0,0,1,1,1,1,1,1,1,1,1,1,1,1,0,0,0,0,0,0,0,0,0,0,0,0,0,0,0,0,0,0,0,0,0,0,0,0,0,0,0,0,0,0,0,0,0,0,0,0,0,0,0,0,0,0,0,0,0,0,0,0,0,0,0,0,0,0,0,0],"id":5,"left_children":[1,3,5,7,9,11,13,15,17,19,21,23,25,27,29,31,33,35,37,39,41,43,45,-1,47,49,51,53,55,57,59,61,63,65,67,69,71,73,75,77,79,81,83,85,87,89,91,-1,-1,93,95,97,99,101,103,105,107,109,111,113,115,-1,-1,-1,-1,-1,-1,-1,-1,-1,-1,-1,-1,-1,-1,-1,-1,-1,-1,-1,-1,-1,-1,-1,-1,-1,-1,-1,-1,-1,-1,-1,-1,-1,-1,-1,-1,-1,-1,-1,-1,-1,-1,-1,-1,-1,-1,-1,-1,-1,-1,-1,-1,-1,-1,-1,-1],"loss_changes":[4.501383E3,1.6114648E3,5.630625E2,1.148418E3,5.1097363E2,1.4707422E2,3.3495703E2,5.319756E2,7.801172E2,1.5584607E2,3.6417773E2,1.6074716E2,1.5078857E2,2.5377051E2,9.4769775E1,3.3434424E2,1.4841367E2,5.279961E2,4.9233398E2,5.0862778E1,1.4322333E2,3.2374805E2,1.3980103E2,0E0,2.9983398E1,1.5622366E2,1.1717676E2,2.3125488E2,1.5427736E2,6.3050537E1,8.5309204E1,3.212682E2,1.8975098E2,1.9510959E2,7.166986E1,7.9853516E2,2.3552832E2,3.357295E2,4.5489746E2,1.4622086E1,6.2377693E1,1.4963281E2,1.8244049E2,2.4115283E2,2.4316406E2,1.6120361E2,1.7858643E1,0E0,0E0,6.3557648E1,8.0173035E1,1.201228E2,6.1699997E1,1.7521777E2,9.122446E1,6.2639442E1,8.745322E1,7.219092E1,6.577295E1,8.994983E1,4.639464E1,0E0,0E0,0E0,0E0,0E0,0E0,0E0,0E0,0E0,0E0,0E0,0E0,0E0,0E0,0E0,0E0,0E0,0E0,0E0,0E0,0E0,0E0,0E0,0E0,0E0,0E0,0E0,0E0,0E0,0E0,0E0,0E0,0E0,0E0,0E0,0E0,0E0,0E0,0E0,0E0,0E0,0E0,0E0,0E0,0E0,0E0,0E0,0E0,0E0,0E0,0E0,0E0,0E0,0E0,0E0,0E0],"parents":[2147483647,0,0,1,1,2,2,3,3,4,4,5,5,6,6,7,7,8,8,9,9,10,10,11,11,12,12,13,13,14,14,15,15,16,16,17,17,18,18,19,19,20,20,21,21,22,22,24,24,25,25,26,26,27,27,28,28,29,29,30,30,31,31,32,32,33,33,34,34,35,35,36,36,37,37,38,38,39,39,40,40,41,41,42,42,43,43,44,44,45,45,46,46,49,49,50,50,51,51,52,52,53,53,54,54,55,55,56,56,57,57,58,58,59,59,60,60],"right_children":[2,4,6,8,10,12,14,16,18,20,22,24,26,28,30,32,34,36,38,40,42,44,46,-1,48,50,52,54,56,58,60,62,64,66,68,70,72,74,76,78,80,82,84,86,88,90,92,-1,-1,94,96,98,100,102,104,106,108,110,112,114,116,-1,-1,-1,-1,-1,-1,-1,-1,-1,-1,-1,-1,-1,-1,-1,-1,-1,-1,-1,-1,-1,-1,-1,-1,-1,-1,-1,-1,-1,-1,-1,-1,-1,-1,-1,-1,-1,-1,-1,-1,-1,-1,-1,-1,-1,-1,-1,-1,-1,-1,-1,-1,-1,-1,-1,-1],"split_conditions":[1.1004165E4,2.01E3,1.5E0,5E-1,1.0328866E0,1.106763E4,1.30745E4,5.5E0,9.5E0,4.65E1,5.415E2,2.5E0,6.39E-2,4.9E1,1.85E1,1.05E3,6.0067505E2,8.929609E3,1.15E1,9.3872E2,1.15E1,5.5E0,6.62E2,-3.8425394E-3,3.23495E2,4.8558002E2,6.29195E2,3.35E3,1.25E1,5.035E2,5.65E1,1.35E1,3E0,1.9E1,3.4215E3,1.3088468E0,8.990846E3,1.5286727E0,3.5E0,5.43255E4,7.5299E2,1.1483E4,5E-1,1.416E3,1.5E0,1.016495E5,1.1217885E0,9.185578E-3,7.806181E-2,3.9339502E2,1.1433404E4,5E-1,5.36E2,1.127388E4,1.25E1,1.119352E4,1.19673E3,1.5125793E0,7.0412E2,1.4981668E0,5.3645E-1,6.533105E-2,-5.810329E-3,3.0669956E-2,1.1260605E-1,1.8977804E-2,1.0214459E-1,-3.4786551E-3,2.0677812E-2,7.547135E-2,5.0477922E-2,1.1442604E-2,4.459703E-2,3.418371E-2,1.0616385E-2,3.195281E-2,5.2949417E-2,1.9310815E-2,1.7384585E-3,-6.5418956E-4,4.7041435E-2,4.8812483E-2,6.092495E-3,1.12188935E-1,-3.223694E-3,7.333648E-3,3.5027526E-2,6.31305E-2,2.5881985E-2,3.4547746E-2,2.0416588E-2,2.6700854E-2,-4.669991E-3,7.922066E-2,-2.7183327E-3,7.163088E-2,1.6079234E-2,1.1512786E-2,2.2845434E-2,1.3618957E-2,4.7413064E-3,1.8821018E-2,3.3616245E-2,7.173539E-3,2.585896E-2,3.1177608E-2,7.5847534E-3,2.9901676E-3,6.734095E-2,2.6082197E-2,2.3728986E-3,1.7807586E-2,8.664286E-3,2.8873619E-2,5.370235E-4,2.837571E-3,3.9664466E-2],"split_indices":[6,31,19,19,11,6,6,29,29,22,10,20,12,29,20,31,3,6,20,3,25,19,10,0,2,3,3,31,26,10,29,20,24,27,1,11,6,11,19,5,4,14,0,7,24,5,11,0,0,2,6,19,10,6,20,6,4,11,3,11,12,0,0,0,0,0,0,0,0,0,0,0,0,0,0,0,0,0,0,0,0,0,0,0,0,0,0,0,0,0,0,0,0,0,0,0,0,0,0,0,0,0,0,0,0,0,0,0,0,0,0,0,0,0,0,0,0],"split_type":[0,0,0,0,0,0,0,0,0,0,0,0,0,0,0,0,0,0,0,0,0,0,0,0,0,0,0,0,0,0,0,0,0,0,0,0,0,0,0,0,0,0,0,0,0,0,0,0,0,0,0,0,0,0,0,0,0,0,0,0,0,0,0,0,0,0,0,0,0,0,0,0,0,0,0,0,0,0,0,0,0,0,0,0,0,0,0,0,0,0,0,0,0,0,0,0,0,0,0,0,0,0,0,0,0,0,0,0,0,0,0,0,0,0,0,0,0],"sum_hessian":[6.396E3,3.925E3,2.471E3,2.87E3,1.055E3,7.7E2,1.701E3,5.48E2,2.322E3,1.54E2,9.01E2,1.2E1,7.58E2,1.036E3,6.65E2,4E2,1.48E2,1.471E3,8.51E2,1.11E2,4.3E1,5.03E2,3.98E2,4E0,8E0,4.1E1,7.17E2,9.19E2,1.17E2,4.49E2,2.16E2,6.1E1,3.39E2,8.1E1,6.7E1,8E2,6.71E2,3.94E2,4.57E2,1.01E2,1E1,3.8E1,5E0,4.07E2,9.6E1,3.78E2,2E1,1E0,7E0,8E0,3.3E1,3.88E2,3.29E2,8.13E2,1.06E2,1.07E2,1E1,1.13E2,3.36E2,1.88E2,2.8E1,5.4E1,7E0,3.37E2,2E0,7.9E1,2E0,5.2E1,1.5E1,1.67E2,6.33E2,2.3E1,6.48E2,3.18E2,7.6E1,1.72E2,2.85E2,4E0,9.7E1,5E0,5E0,1.1E1,2.7E1,3E0,2E0,3.5E1,3.72E2,7E1,2.6E1,1.24E2,2.54E2,1E0,1.9E1,7E0,1E0,2E0,3.1E1,2.21E2,1.67E2,1.3E2,1.99E2,9.5E1,7.18E2,5.7E1,4.9E1,1.2E1,9.5E1,3E0,7E0,9.8E1,1.5E1,2.02E2,1.34E2,1.76E2,1.2E1,2.5E1,3E0],"tree_param":{"num_deleted":"0","num_feature":"33","num_nodes":"117","size_leaf_vector":"0"}},{"base_weights":[3.1803396E0,3.839531E0,2.1321332E0,4.2249117E0,2.788141E0,1.4266605E0,2.450457E0,4.4954863E0,2.7514796E0,1.1132756E0,3.0728595E0,4.755773E0,1.3677605E0,2.8049707E0,1.8975049E0,4.745629E0,3.3277822E0,3.3560882E0,1.2303463E0,4.8256108E-1,2.693429E0,3.636224E0,2.3535397E0,-3.8117993E-1,7.0812163E0,3.159574E0,1.2557389E0,2.980726E0,1.413884E0,1.6323158E0,2.4411361E0,5.569762E0,4.324376E0,6.5387383E0,3.1638334E0,4.375238E0,2.4195976E0,4.8613256E-1,3.139395E0,2.5927874E-1,2.509128E0,-5.6012666E-1,3.6668315E0,3.2344143E0,5.2888236E0,2.8003504E0,1.5515374E0,9.13965E-1,7.7378774E0,6.920115E0,2.1316729E0,1.6283063E0,8.125416E-1,3.16143E0,1.5815454E0,1.0393504E0,4.9625883E0,1.9132173E0,1.1273594E0,2.6808095E0,7.949496E-1,4.7741737E0,6.6704664E0,1.7315737E0,4.532503E0,8.348911E0,-5.615622E-1,3.3782797E0,1.1409596E0,6.018988E0,2.9729288E0,1.4583135E0,3.3088734E0,1.4762682E0,-2.7463955E-1,4.7375827E0,2.8955853E-1,6.617436E-2,1.0009588E0,-6.487379E-2,4.6649423E0,6.950904E0,2.008847E0,7.2623485E-1,3.4678192E0,6.250809E0,2.563275E0,2.4295092E0,5.7200456E0,3.1834915E0,1.133775E0,7.852748E0,-2.704741E-1,7.115334E0,1.6292417E0,3.840933E-1,1.8775005E0,1.3341814E0,4.6941304E-1,2.9167504E0,4.1177506E0,7.103041E-1,2.5605543E0,3.0889816E0,7.509696E-1,2.9677412E-1,6.675172E0,2.1030838E0,6.037539E-1,3.0808735E0,7.868509E-1,2.8586514E0,5.3206597E-2,3.540349E-1,4.4981985E0],"categories":[],"categories_nodes":[],"categories_segments":[],"categories_sizes":[],"default_left":[1,1,1,1,1,1,1,1,1,1,1,1,1,1,1,1,1,1,1,1,1,1,1,0,1,1,1,1,1,1,1,1,1,1,1,1,1,1,1,1,1,0,1,1,1,1,1,0,0,1,1,1,1,1,1,1,1,1,1,1,1,0,0,0,0,0,0,0,0,0,0,0,0,0,0,0,0,0,0,0,0,0,0,0,0,0,0,0,0,0,0,0,0,0,0,0,0,0,0,0,0,0,0,0,0,0,0,0,0,0,0,0,0,0,0],"id":6,"left_children":[1,3,5,7,9,11,13,15,17,19,21,23,25,27,29,31,33,35,37,39,41,43,45,-1,47,49,51,53,55,57,59,61,63,65,67,69,71,73,75,77,79,-1,81,83,85,87,89,-1,-1,91,93,95,97,99,101,103,105,107,109,111,113,-1,-1,-1,-1,-1,-1,-1,-1,-1,-1,-1,-1,-1,-1,-1,-1,-1,-1,-1,-1,-1,-1,-1,-1,-1,-1,-1,-1,-1,-1,-1,-1,-1,-1,-1,-1,-1,-1,-1,-1,-1,-1,-1,-1,-1,-1,-1,-1,-1,-1,-1,-1,-1,-1],"loss_changes":[4.4119375E3,1.5789805E3,5.516387E2,1.1322188E3,5.0014844E2,1.4467664E2,3.2831836E2,6.922422E2,4.078921E2,1.5317726E2,3.5696777E2,1.5799323E2,1.4838037E2,2.4883252E2,9.231787E1,6.6816797E2,2.0620508E2,2.9482935E2,1.8174931E2,5.002906E1,1.4140271E2,3.1756592E2,1.3863403E2,0E0,2.9375977E1,1.5532901E2,1.1690344E2,2.2710449E2,1.5167702E2,6.1956177E1,8.3485596E1,5.5575195E2,7.06625E2,2.617439E2,1.7487012E2,3.324729E2,1.3964374E2,7.121259E1,1.625928E2,1.4542371E1,6.13424E1,0E0,1.7116476E2,2.3633301E2,2.3830566E2,2.6220288E2,9.524716E1,0E0,0E0,6.2479553E1,7.854947E1,1.1957849E2,5.8261276E1,1.779917E2,8.9447174E1,6.151629E1,8.591553E1,7.05824E1,1.0666666E2,8.8167114E1,4.575917E1,0E0,0E0,0E0,0E0,0E0,0E0,0E0,0E0,0E0,0E0,0E0,0E0,0E0,0E0,0E0,0E0,0E0,0E0,0E0,0E0,0E0,0E0,0E0,0E0,0E0,0E0,0E0,0E0,0E0,0E0,0E0,0E0,0E0,0E0,0E0,0E0,0E0,0E0,0E0,0E0,0E0,0E0,0E0,0E0,0E0,0E0,0E0,0E0,0E0,0E0,0E0,0E0,0E0,0E0],"parents":[2147483647,0,0,1,1,2,2,3,3,4,4,5,5,6,6,7,7,8,8,9,9,10,10,11,11,12,12,13,13,14,14,15,15,16,16,17,17,18,18,19,19,20,20,21,21,22,22,24,24,25,25,26,26,27,27,28,28,29,29,30,30,31,31,32,32,33,33,34,34,35,35,36,36,37,37,38,38,39,39,40,40,42,42,43,43,44,44,45,45,46,46,49,49,50,50,51,51,52,52,53,53,54,54,55,55,56,56,57,57,58,58,59,59,60,60],"right_children":[2,4,6,8,10,12,14,16,18,20,22,24,26,28,30,32,34,36,38,40,42,44,46,-1,48,50,52,54,56,58,60,62,64,66,68,70,72,74,76,78,80,-1,82,84,86,88,90,-1,-1,92,94,96,98,100,102,104,106,108,110,112,114,-1,-1,-1,-1,-1,-1,-1,-1,-1,-1,-1,-1,-1,-1,-1,-1,-1,-1,-1,-1,-1,-1,-1,-1,-1,-1,-1,-1,-1,-1,-1,-1,-1,-1,-1,-1,-1,-1,-1,-1,-1,-1,-1,-1,-1,-1,-1,-1,-1,-1,-1,-1,-1,-1],"split_conditions":[1.1004165E4,2.01E3,1.5E0,5.905E2,1.0328866E0,1.106763E4,1.30491E4,2.0135E3,2.95E1,4.65E1,5.415E2,2.5E0,7.2950006E-2,4.9E1,1.85E1,4.1739E2,7.89E-2,2.273E3,3.16E3,9.3872E2,6.53755E3,5.5E0,9.937125E3,-3.8117992E-3,3.23495E2,4.8558002E2,6.29195E2,3.35E3,1.25E1,1.481077E4,5.65E1,9.5E0,6.649915E3,7.5E0,1.4874957E0,1.3756285E0,1.5E0,1.4001986E0,1.35E1,2.0145E3,7.5299E2,-5.6012664E-3,1.2019E4,1.416E3,1.5E0,3.375E2,1.93E3,9.13965E-3,7.737877E-2,3.9339502E2,1.1433404E4,1.1171234E0,5.36E2,4.0171E2,1.25E1,1.119352E4,1.19673E3,4E1,2.107E3,1.4981668E0,5.8070004E-1,4.7741737E-2,6.670466E-2,1.7315736E-2,4.532503E-2,8.348911E-2,-5.615622E-3,3.3782795E-2,1.1409596E-2,6.018988E-2,2.9729286E-2,1.4583134E-2,3.3088733E-2,1.4762681E-2,-2.7463953E-3,4.7375824E-2,2.8955853E-3,6.617436E-4,1.0009588E-2,-6.487379E-4,4.6649422E-2,6.950904E-2,2.008847E-2,7.262348E-3,3.467819E-2,6.250809E-2,2.563275E-2,2.4295092E-2,5.7200454E-2,3.1834915E-2,1.133775E-2,7.852748E-2,-2.704741E-3,7.1153335E-2,1.6292417E-2,3.840933E-3,1.8775005E-2,1.3341814E-2,4.6941303E-3,2.9167503E-2,4.1177504E-2,7.103041E-3,2.5605543E-2,3.0889815E-2,7.509696E-3,2.967741E-3,6.675172E-2,2.1030838E-2,6.0375393E-3,3.0808734E-2,7.868509E-3,2.8586512E-2,5.320659E-4,3.540349E-3,4.4981983E-2],"split_indices":[6,31,19,10,11,6,6,9,29,22,10,20,12,29,20,3,12,7,1,3,6,19,6,0,2,3,3,31,26,6,29,20,6,21,11,11,19,11,13,9,4,0,14,7,24,0,7,0,0,2,6,11,10,2,20,6,4,29,7,11,12,0,0,0,0,0,0,0,0,0,0,0,0,0,0,0,0,0,0,0,0,0,0,0,0,0,0,0,0,0,0,0,0,0,0,0,0,0,0,0,0,0,0,0,0,0,0,0,0,0,0,0,0,0,0],"split_type":[0,0,0,0,0,0,0,0,0,0,0,0,0,0,0,0,0,0,0,0,0,0,0,0,0,0,0,0,0,0,0,0,0,0,0,0,0,0,0,0,0,0,0,0,0,0,0,0,0,0,0,0,0,0,0,0,0,0,0,0,0,0,0,0,0,0,0,0,0,0,0,0,0,0,0,0,0,0,0,0,0,0,0,0,0,0,0,0,0,0,0,0,0,0,0,0,0,0,0,0,0,0,0,0,0,0,0,0,0,0,0,0,0,0,0],"sum_hessian":[6.396E3,3.925E3,2.471E3,2.87E3,1.055E3,7.7E2,1.701E3,2.423E3,4.47E2,1.54E2,9.01E2,1.2E1,7.58E2,1.034E3,6.67E2,1.993E3,4.3E2,3.19E2,1.28E2,1.11E2,4.3E1,5.03E2,3.98E2,4E0,8E0,4.3E1,7.15E2,9.17E2,1.17E2,4.51E2,2.16E2,6.7E2,1.323E3,1.9E1,4.11E2,1.51E2,1.68E2,9.3E1,3.5E1,1.01E2,1E1,1E1,3.3E1,4.07E2,9.6E1,2.54E2,1.44E2,1E0,7E0,8E0,3.5E1,3.87E2,3.28E2,8.11E2,1.06E2,1.07E2,1E1,2.88E2,1.63E2,1.88E2,2.8E1,3.92E2,2.78E2,9.9E1,1.224E3,1.5E1,4E0,3.71E2,4E1,6.8E1,8.3E1,8.2E1,8.6E1,4E1,5.3E1,2.2E1,1.3E1,8.1E1,2E1,5E0,5E0,1E1,2.3E1,3.5E1,3.72E2,7E1,2.6E1,2.27E2,2.7E1,2.8E1,1.16E2,7E0,1E0,2E0,3.3E1,6.5E1,3.22E2,1.29E2,1.99E2,6.49E2,1.62E2,5.7E1,4.9E1,1.2E1,9.5E1,3E0,7E0,2.51E2,3.7E1,2.3E1,1.4E2,1.76E2,1.2E1,2.6E1,2E0],"tree_param":{"num_deleted":"0","num_feature":"33","num_nodes":"115","size_leaf_vector":"0"}},{"base_weights":[3.1487763E0,3.8013637E0,2.1110713E0,4.1828365E0,2.760634E0,1.4127657E0,2.4261608E0,2.8891692E0,4.4867716E0,1.1030504E0,3.0424132E0,4.714577E0,1.3543516E0,2.7771251E0,1.8787445E0,3.4782846E0,1.284307E0,4.925319E0,3.7238264E0,4.782415E-1,2.6684039E0,3.6001198E0,2.3303168E0,-3.781305E-1,7.0200176E0,3.1316888E0,1.2432382E0,2.951031E0,1.4006615E0,1.6161381E0,2.4170825E0,5.623393E0,3.0768876E0,2.1740286E0,1.9252044E-1,5.47639E0,4.2611337E0,2.9006758E0,4.425618E0,2.5679058E-1,2.4882188E0,1.896956E0,7.2380805E0,3.2021728E0,5.2368436E0,3.147554E0,1.8909692E0,9.093951E-1,7.670171E0,6.8593388E0,2.112785E0,1.6120815E0,8.044711E-1,3.1299024E0,1.5660355E0,1.0293124E0,4.9193006E0,2.2581623E0,1.3954688E0,2.6541555E0,7.886733E-1,6.427557E0,-6.081602E-1,2.9961529E0,1.1147386E1,1.8486396E0,1.0126394E1,-3.6320424E-1,2.0213258E0,7.425858E0,4.951174E0,1.092072E0,4.37176E0,3.3457513E0,1.0191206E0,3.123209E0,5.197965E0,-4.8455897E-1,4.435168E-1,-6.433318E-2,4.6260676E0,4.791565E0,5.8866096E-1,1.110733E1,-3.336126E-1,7.191742E-1,3.433234E0,6.1891813E0,2.5385919E0,4.291938E0,1.6755358E0,-6.05563E-1,2.0237422E0,7.7840366E0,-2.6912174E-1,7.0678983E0,1.6134285E0,1.1232203E0,2.245571E0,1.3209423E0,4.6474242E-1,2.8876278E0,4.0768256E0,7.0332354E-1,2.5354607E0,3.060468E0,7.4353814E-1,2.945483E-1,6.616764E0,2.5651512E0,2.1753162E-1,1.74203E0,8.6536616E-1,2.8302264E0,5.2715465E-2,2.776245E-1,3.913322E0],"categories":[],"categories_nodes":[],"categories_segments":[],"categories_sizes":[],"default_left":[1,1,1,1,1,1,1,1,1,1,1,1,1,1,1,1,1,1,1,1,1,1,1,0,1,1,1,1,1,1,1,1,1,1,1,1,1,1,1,1,1,1,1,1,1,1,1,0,0,1,1,1,1,1,1,1,1,1,1,1,1,0,0,0,0,0,0,0,0,0,0,0,0,0,0,0,0,0,0,0,0,0,0,0,0,0,0,0,0,0,0,0,0,0,0,0,0,0,0,0,0,0,0,0,0,0,0,0,0,0,0,0,0,0,0,0,0],"id":7,"left_children":[1,3,5,7,9,11,13,15,17,19,21,23,25,27,29,31,33,35,37,39,41,43,45,-1,47,49,51,53,55,57,59,61,63,65,67,69,71,73,75,77,79,81,83,85,87,89,91,-1,-1,93,95,97,99,101,103,105,107,109,111,113,115,-1,-1,-1,-1,-1,-1,-1,-1,-1,-1,-1,-1,-1,-1,-1,-1,-1,-1,-1,-1,-1,-1,-1,-1,-1,-1,-1,-1,-1,-1,-1,-1,-1,-1,-1,-1,-1,-1,-1,-1,-1,-1,-1,-1,-1,-1,-1,-1,-1,-1,-1,-1,-1,-1,-1,-1],"loss_changes":[4.3239805E3,1.5471133E3,5.404844E2,1.1158867E3,4.8987305E2,1.4231934E2,3.2177637E2,5.14584E2,7.5891016E2,1.5032109E2,3.4983203E2,1.5528659E2,1.4599854E2,2.4361963E2,9.052954E1,3.279746E2,1.4431795E2,5.154336E2,4.7934668E2,4.9213516E1,1.4138144E2,3.115005E2,1.3730957E2,0E0,2.8780365E1,1.5262485E2,1.1457788E2,2.2252002E2,1.4912039E2,6.0885986E1,8.168005E1,3.146029E2,1.8813501E2,1.9346423E2,6.984339E1,7.8337305E2,2.308164E2,3.2737646E2,4.4447266E2,1.4334711E1,6.0324272E1,1.4487248E2,1.7948618E2,2.3161035E2,2.3354395E2,2.2527722E2,8.8071106E1,0E0,0E0,6.141992E1,7.767372E1,1.176369E2,5.7112457E1,1.745122E2,8.770459E1,6.0413246E1,8.440488E1,7.0857544E1,6.077118E1,8.6420044E1,4.522216E1,0E0,0E0,0E0,0E0,0E0,0E0,0E0,0E0,0E0,0E0,0E0,0E0,0E0,0E0,0E0,0E0,0E0,0E0,0E0,0E0,0E0,0E0,0E0,0E0,0E0,0E0,0E0,0E0,0E0,0E0,0E0,0E0,0E0,0E0,0E0,0E0,0E0,0E0,0E0,0E0,0E0,0E0,0E0,0E0,0E0,0E0,0E0,0E0,0E0,0E0,0E0,0E0,0E0,0E0,0E0,0E0],"parents":[2147483647,0,0,1,1,2,2,3,3,4,4,5,5,6,6,7,7,8,8,9,9,10,10,11,11,12,12,13,13,14,14,15,15,16,16,17,17,18,18,19,19,20,20,21,21,22,22,24,24,25,25,26,26,27,27,28,28,29,29,30,30,31,31,32,32,33,33,34,34,35,35,36,36,37,37,38,38,39,39,40,40,41,41,42,42,43,43,44,44,45,45,46,46,49,49,50,50,51,51,52,52,53,53,54,54,55,55,56,56,57,57,58,58,59,59,60,60],"right_children":[2,4,6,8,10,12,14,16,18,20,22,24,26,28,30,32,34,36,38,40,42,44,46,-1,48,50,52,54,56,58,60,62,64,66,68,70,72,74,76,78,80,82,84,86,88,90,92,-1,-1,94,96,98,100,102,104,106,108,110,112,114,116,-1,-1,-1,-1,-1,-1,-1,-1,-1,-1,-1,-1,-1,-1,-1,-1,-1,-1,-1,-1,-1,-1,-1,-1,-1,-1,-1,-1,-1,-1,-1,-1,-1,-1,-1,-1,-1,-1,-1,-1,-1,-1,-1,-1,-1,-1,-1,-1,-1,-1,-1,-1,-1,-1,-1,-1],"split_conditions":[1.1004165E4,2.01E3,1.5E0,5E-1,1.0328866E0,1.106763E4,1.30491E4,5.5E0,9.5E0,4.65E1,5.415E2,2.5E0,7.2950006E-2,4.9E1,1.85E1,1.05E3,6.0067505E2,8.929609E3,1.15E1,9.3872E2,1.15E1,5.5E0,1.024465E5,-3.781305E-3,3.23495E2,4.8558002E2,6.29195E2,3.35E3,1.25E1,5.035E2,5.65E1,1.35E1,3E0,1.9E1,3.4215E3,1.3088468E0,8.990846E3,1.5286727E0,3.5E0,2.54695E2,7.5299E2,1.1483E4,5E-1,1.416E3,1.5E0,9.91751E3,1.483E3,9.0939505E-3,7.670171E-2,3.9339502E2,1.1433404E4,5E-1,5.36E2,4.0171E2,1.25E1,1.119352E4,1.19673E3,1.5125793E0,7.0412E2,1.4981668E0,5.3645E-1,6.427557E-2,-6.081602E-3,2.9961528E-2,1.1147385E-1,1.8486395E-2,1.0126394E-1,-3.6320423E-3,2.0213258E-2,7.425858E-2,4.9511738E-2,1.092072E-2,4.3717597E-2,3.3457514E-2,1.0191206E-2,3.1232089E-2,5.197965E-2,-4.8455894E-3,4.4351676E-3,-6.433318E-4,4.6260674E-2,4.791565E-2,5.886609E-3,1.110733E-1,-3.3361258E-3,7.191742E-3,3.433234E-2,6.1891813E-2,2.5385918E-2,4.291938E-2,1.6755357E-2,-6.05563E-3,2.0237422E-2,7.7840365E-2,-2.6912172E-3,7.067898E-2,1.6134284E-2,1.1232203E-2,2.2455709E-2,1.3209422E-2,4.647424E-3,2.8876279E-2,4.0768255E-2,7.0332354E-3,2.5354607E-2,3.060468E-2,7.4353814E-3,2.945483E-3,6.616764E-2,2.565151E-2,2.1753162E-3,1.74203E-2,8.653661E-3,2.8302263E-2,5.2715465E-4,2.776245E-3,3.9133217E-2],"split_indices":[6,31,19,19,11,6,6,29,29,22,10,20,12,29,20,31,3,6,20,3,25,19,5,0,2,3,3,31,26,10,29,20,24,27,1,11,6,11,19,2,4,14,0,7,24,6,1,0,0,2,6,19,10,2,20,6,4,11,3,11,12,0,0,0,0,0,0,0,0,0,0,0,0,0,0,0,0,0,0,0,0,0,0,0,0,0,0,0,0,0,0,0,0,0,0,0,0,0,0,0,0,0,0,0,0,0,0,0,0,0,0,0,0,0,0,0,0],"split_type":[0,0,0,0,0,0,0,0,0,0,0,0,0,0,0,0,0,0,0,0,0,0,0,0,0,0,0,0,0,0,0,0,0,0,0,0,0,0,0,0,0,0,0,0,0,0,0,0,0,0,0,0,0,0,0,0,0,0,0,0,0,0,0,0,0,0,0,0,0,0,0,0,0,0,0,0,0,0,0,0,0,0,0,0,0,0,0,0,0,0,0,0,0,0,0,0,0,0,0,0,0,0,0,0,0,0,0,0,0,0,0,0,0,0,0,0,0],"sum_hessian":[6.396E3,3.925E3,2.471E3,2.87E3,1.055E3,7.7E2,1.701E3,5.48E2,2.322E3,1.54E2,9.01E2,1.2E1,7.58E2,1.034E3,6.67E2,4E2,1.48E2,1.471E3,8.51E2,1.11E2,4.3E1,5.03E2,3.98E2,4E0,8E0,4.3E1,7.15E2,9.17E2,1.17E2,4.51E2,2.16E2,6.1E1,3.39E2,8.1E1,6.7E1,8E2,6.71E2,3.94E2,4.57E2,1.01E2,1E1,3.8E1,5E0,4.07E2,9.6E1,1.37E2,2.61E2,1E0,7E0,8E0,3.5E1,3.87E2,3.28E2,8.11E2,1.06E2,1.07E2,1E1,1.13E2,3.38E2,1.88E2,2.8E1,5.4E1,7E0,3.37E2,2E0,7.9E1,2E0,5.2E1,1.5E1,1.67E2,6.33E2,2.3E1,6.48E2,3.18E2,7.6E1,1.72E2,2.85E2,2E1,8.1E1,5E0,5E0,1.1E1,2.7E1,3E0,2E0,3.5E1,3.72E2,7E1,2.6E1,7.6E1,6.1E1,1.3E1,2.48E2,7E0,1E0,2E0,3.3E1,2.2E2,1.67E2,1.29E2,1.99E2,6.49E2,1.62E2,5.7E1,4.9E1,1.2E1,9.5E1,3E0,7E0,9.8E1,1.5E1,2.03E2,1.35E2,1.76E2,1.2E1,2.5E1,3E0],"tree_param":{"num_deleted":"0","num_feature":"33","num_nodes":"117","size_leaf_vector":"0"}},{"base_weights":[3.117551E0,3.7636175E0,2.0902152E0,4.1412315E0,2.7334154E0,1.3990214E0,2.4020953E0,4.4076953E0,2.6902282E0,1.0933537E0,3.0122137E0,4.6737404E0,1.3410895E0,2.7487044E0,1.8587985E0,4.654966E0,3.2534847E0,3.283093E0,1.1987015E0,4.738627E-1,2.645391E0,3.5643742E0,2.3071985E0,-3.7510544E-1,6.95935E0,3.104053E0,1.2308779E0,2.9202979E0,1.3875629E0,1.5969495E0,2.3932376E0,4.9113874E0,3.3375573E0,6.4375477E0,3.0910218E0,4.2906203E0,2.3574882E0,4.6430552E-1,3.082994E0,2.5421864E-1,2.4674838E0,1.8793659E0,7.183656E0,2.9214869E0,4.551404E0,2.4419308E0,-2.3426256E-1,9.0484816E-1,7.603057E0,6.7990956E0,2.0940688E0,1.5960475E0,7.964806E-1,3.0967464E0,1.5506779E0,1.0193715E0,4.8763905E0,2.2358246E0,1.3760927E0,2.6277664E0,7.822317E-1,3.191983E0,5.1637845E0,3.5875278E0,9.1321975E-1,8.231182E0,-5.895921E-1,4.1442146E0,2.6692662E0,5.9133825E0,2.906558E0,1.7064309E0,3.6759264E0,2.713224E0,1.3356663E-1,4.66954E0,2.56312E-1,1.9059467E0,1.6735274E-1,-6.379708E-2,4.5875173E0,4.747642E0,5.8298457E-1,1.1024025E1,-3.313885E-1,6.6827774E-1,3.162235E0,6.7002883E0,3.8711405E0,3.3675275E0,1.9786307E0,2.623128E0,-5.082885E-1,7.7159266E0,-2.6777613E-1,7.020779E0,1.5977688E0,3.6465716E-1,1.8427215E0,1.3078345E0,4.601182E-1,3.2480552E0,1.647886E0,6.9641155E-1,2.5106132E0,3.0322175E0,7.361802E-1,2.923392E-1,6.5588675E0,2.539759E0,2.1549225E-1,1.7290932E0,8.3509123E-1,2.802084E0,5.2228853E-2,3.466057E-1,4.442122E0],"categories":[],"categories_nodes":[],"categories_segments":[],"categories_sizes":[],"default_left":[1,1,1,1,1,1,1,1,1,1,1,1,1,1,1,1,1,1,1,1,1,1,1,0,1,1,1,1,1,1,1,1,1,1,1,1,1,1,1,1,1,1,1,1,1,1,1,0,0,1,1,1,1,1,1,1,1,1,1,1,1,0,0,0,0,0,0,0,0,0,0,0,0,0,0,0,0,0,0,0,0,0,0,0,0,0,0,0,0,0,0,0,0,0,0,0,0,0,0,0,0,0,0,0,0,0,0,0,0,0,0,0,0,0,0,0,0],"id":8,"left_children":[1,3,5,7,9,11,13,15,17,19,21,23,25,27,29,31,33,35,37,39,41,43,45,-1,47,49,51,53,55,57,59,61,63,65,67,69,71,73,75,77,79,81,83,85,87,89,91,-1,-1,93,95,97,99,101,103,105,107,109,111,113,115,-1,-1,-1,-1,-1,-1,-1,-1,-1,-1,-1,-1,-1,-1,-1,-1,-1,-1,-1,-1,-1,-1,-1,-1,-1,-1,-1,-1,-1,-1,-1,-1,-1,-1,-1,-1,-1,-1,-1,-1,-1,-1,-1,-1,-1,-1,-1,-1,-1,-1,-1,-1,-1,-1,-1,-1],"loss_changes":[4.238E3,1.5159727E3,5.2952734E2,1.0981836E3,4.795586E2,1.3999927E2,3.1539648E2,6.766719E2,3.9221924E2,1.4777481E2,3.429082E2,1.5262646E2,1.4365234E2,2.3815283E2,8.937964E1,6.5720703E2,2.030542E2,2.883081E2,1.7708095E2,4.8416065E1,1.3946198E2,3.0651562E2,1.3719629E2,0E0,2.819632E1,1.4996735E2,1.12306885E2,2.1753174E2,1.466068E2,6.0418335E1,7.993298E1,7.069453E2,1.954961E2,2.5693542E2,1.7194434E2,3.2420483E2,1.3879333E2,6.955525E1,1.6025089E2,1.431588E1,5.9323067E1,1.4224898E2,1.7681653E2,1.6496313E2,2.6203833E2,1.5586304E2,1.7776287E1,0E0,0E0,6.0378296E1,7.680698E1,1.171839E2,5.5986298E1,1.7309668E2,8.599591E1,5.932995E1,8.2920746E1,6.945416E1,6.2914185E1,8.470752E1,4.469629E1,0E0,0E0,0E0,0E0,0E0,0E0,0E0,0E0,0E0,0E0,0E0,0E0,0E0,0E0,0E0,0E0,0E0,0E0,0E0,0E0,0E0,0E0,0E0,0E0,0E0,0E0,0E0,0E0,0E0,0E0,0E0,0E0,0E0,0E0,0E0,0E0,0E0,0E0,0E0,0E0,0E0,0E0,0E0,0E0,0E0,0E0,0E0,0E0,0E0,0E0,0E0,0E0,0E0,0E0,0E0,0E0],"parents":[2147483647,0,0,1,1,2,2,3,3,4,4,5,5,6,6,7,7,8,8,9,9,10,10,11,11,12,12,13,13,14,14,15,15,16,16,17,17,18,18,19,19,20,20,21,21,22,22,24,24,25,25,26,26,27,27,28,28,29,29,30,30,31,31,32,32,33,33,34,34,35,35,36,36,37,37,38,38,39,39,40,40,41,41,42,42,43,43,44,44,45,45,46,46,49,49,50,50,51,51,52,52,53,53,54,54,55,55,56,56,57,57,58,58,59,59,60,60],"right_children":[2,4,6,8,10,12,14,16,18,20,22,24,26,28,30,32,34,36,38,40,42,44,46,-1,48,50,52,54,56,58,60,62,64,66,68,70,72,74,76,78,80,82,84,86,88,90,92,-1,-1,94,96,98,100,102,104,106,108,110,112,114,116,-1,-1,-1,-1,-1,-1,-1,-1,-1,-1,-1,-1,-1,-1,-1,-1,-1,-1,-1,-1,-1,-1,-1,-1,-1,-1,-1,-1,-1,-1,-1,-1,-1,-1,-1,-1,-1,-1,-1,-1,-1,-1,-1,-1,-1,-1,-1,-1,-1,-1,-1,-1,-1,-1,-1,-1],"split_conditions":[1.1004165E4,2.01E3,1.5E0,5.905E2,1.0328866E0,1.106763E4,1.30745E4,2.0135E3,2.95E1,4.65E1,5.415E2,2.5E0,7.2950006E-2,4.9E1,1.85E1,1.0054445E4,7.89E-2,2.273E3,3.16E3,9.3872E2,1.15E1,3.5E0,6.62E2,-3.7510544E-3,3.23495E2,4.8558002E2,6.29195E2,3.35E3,1.25E1,5.035E2,5.65E1,6.62633E3,2.5E0,7.5E0,8.2908E4,1.3756285E0,3.1595E3,1.2105758E0,1.35E1,5.43255E4,7.5299E2,1.1483E4,5E-1,1.416E3,2.011E3,1.016495E5,1.1217885E0,9.0484815E-3,7.603057E-2,3.9339502E2,1.1433404E4,1.1171234E0,5.36E2,1.4935045E0,1.25E1,1.119352E4,1.19673E3,1.5125793E0,7.0412E2,1.4981668E0,5.8070004E-1,3.191983E-2,5.1637843E-2,3.5875276E-2,9.132197E-3,8.231182E-2,-5.895921E-3,4.1442145E-2,2.6692662E-2,5.9133824E-2,2.906558E-2,1.7064309E-2,3.6759265E-2,2.713224E-2,1.3356663E-3,4.66954E-2,2.56312E-3,1.9059466E-2,1.6735273E-3,-6.3797075E-4,4.5875173E-2,4.747642E-2,5.8298456E-3,1.1024025E-1,-3.313885E-3,6.6827773E-3,3.162235E-2,6.7002885E-2,3.8711403E-2,3.3675276E-2,1.9786306E-2,2.623128E-2,-5.082885E-3,7.715926E-2,-2.6777613E-3,7.020779E-2,1.5977688E-2,3.6465717E-3,1.8427214E-2,1.3078345E-2,4.601182E-3,3.2480553E-2,1.647886E-2,6.9641154E-3,2.5106132E-2,3.0322174E-2,7.361802E-3,2.923392E-3,6.5588675E-2,2.539759E-2,2.1549223E-3,1.7290931E-2,8.3509125E-3,2.8020838E-2,5.222885E-4,3.466057E-3,4.442122E-2],"split_indices":[6,31,19,10,11,6,6,9,29,22,10,20,12,29,20,6,12,7,1,3,25,19,10,0,2,3,3,31,26,10,29,6,24,21,5,11,1,11,13,5,4,14,0,7,1,5,11,0,0,2,6,11,10,11,20,6,4,11,3,11,12,0,0,0,0,0,0,0,0,0,0,0,0,0,0,0,0,0,0,0,0,0,0,0,0,0,0,0,0,0,0,0,0,0,0,0,0,0,0,0,0,0,0,0,0,0,0,0,0,0,0,0,0,0,0,0,0],"split_type":[0,0,0,0,0,0,0,0,0,0,0,0,0,0,0,0,0,0,0,0,0,0,0,0,0,0,0,0,0,0,0,0,0,0,0,0,0,0,0,0,0,0,0,0,0,0,0,0,0,0,0,0,0,0,0,0,0,0,0,0,0,0,0,0,0,0,0,0,0,0,0,0,0,0,0,0,0,0,0,0,0,0,0,0,0,0,0,0,0,0,0,0,0,0,0,0,0,0,0,0,0,0,0,0,0,0,0,0,0,0,0,0,0,0,0,0,0],"sum_hessian":[6.396E3,3.925E3,2.471E3,2.87E3,1.055E3,7.7E2,1.701E3,2.423E3,4.47E2,1.54E2,9.01E2,1.2E1,7.58E2,1.036E3,6.65E2,1.993E3,4.3E2,3.19E2,1.28E2,1.11E2,4.3E1,5.03E2,3.98E2,4E0,8E0,4.3E1,7.15E2,9.19E2,1.17E2,4.49E2,2.16E2,1.666E3,3.27E2,1.9E1,4.11E2,1.51E2,1.68E2,9.3E1,3.5E1,1.01E2,1E1,3.8E1,5E0,3.07E2,1.96E2,3.78E2,2E1,1E0,7E0,8E0,3.5E1,3.87E2,3.28E2,8.13E2,1.06E2,1.07E2,1E1,1.13E2,3.36E2,1.88E2,2.8E1,2.15E2,1.451E3,2.96E2,3.1E1,1.5E1,4E0,1.15E2,2.96E2,6.8E1,8.3E1,1.14E2,5.4E1,1.1E1,8.2E1,2.2E1,1.3E1,4E0,9.7E1,5E0,5E0,1.1E1,2.7E1,3E0,2E0,3E1,2.77E2,4.5E1,1.51E2,1.24E2,2.54E2,1E0,1.9E1,7E0,1E0,2E0,3.3E1,6.5E1,3.22E2,1.29E2,1.99E2,7.35E2,7.8E1,5.7E1,4.9E1,1.2E1,9.5E1,3E0,7E0,9.8E1,1.5E1,2.02E2,1.34E2,1.76E2,1.2E1,2.6E1,2E0],"tree_param":{"num_deleted":"0","num_feature":"33","num_nodes":"117","size_leaf_vector":"0"}},{"base_weights":[3.0866158E0,3.7262204E0,2.069555E0,4.099991E0,2.7065024E0,1.3853966E0,2.3782606E0,2.8232558E0,4.39996E0,1.0838796E0,2.9823341E0,4.633259E0,1.3279426E0,2.7222595E0,1.8417081E0,3.4023018E0,1.245935E0,4.8329344E0,3.6467454E0,4.697131E-1,2.6225789E0,3.5290163E0,2.2843137E0,-3.721046E-1,6.89921E0,3.076664E0,1.2186246E0,2.8925242E0,1.3745872E0,1.584171E0,2.3696575E0,5.526391E0,3.0049613E0,2.122809E0,1.7020576E-1,5.376948E0,4.1772985E0,2.8346205E0,4.3391967E0,2.5187972E-1,2.4469213E0,-5.885065E-1,3.5843246E0,3.1376948E0,5.1386046E0,1.9151105E0,3.2490273E0,9.003239E-1,7.53653E0,6.7393804E0,2.0755222E0,1.5801439E0,7.885695E-1,3.0677855E0,1.5354708E0,1.0095267E0,4.8338547E0,1.8616167E0,1.0855982E0,2.6016397E0,7.760607E-1,6.321608E0,-6.3152426E-1,2.9247077E0,1.10452175E1,1.7995297E0,1.0035984E1,-3.765214E-1,1.9706016E0,7.306177E0,4.8572516E0,1.0404251E0,4.2868633E0,3.2743464E0,9.760858E-1,3.0517225E0,5.1028113E0,6.1424907E-2,9.835662E-1,-6.326542E-2,4.549288E0,6.7971535E0,1.9624314E0,6.988791E-1,3.3646646E0,6.0804315E0,2.4716291E0,8.8328594E-1,2.4344656E0,6.926051E0,2.3958106E0,7.6484118E0,-2.6643726E-1,6.973974E0,1.582261E0,1.0962366E0,2.2073069E0,1.2948567E0,4.5554003E-1,2.9668796E0,5.359869E0,8.8634723E-1,2.7910662E0,3.0042276E0,7.2889507E-1,2.9014665E-1,6.5014772E0,2.0484128E0,5.738744E-1,3.022376E0,7.482347E-1,2.7742214E0,5.174673E-2,3.43268E-1,4.4125075E0],"categories":[],"categories_nodes":[],"categories_segments":[],"categories_sizes":[],"default_left":[1,1,1,1,1,1,1,1,1,1,1,1,1,1,1,1,1,1,1,1,1,1,1,0,1,1,1,1,1,1,1,1,1,1,1,1,1,1,1,1,1,0,1,1,1,1,1,0,0,1,1,1,1,1,1,1,1,1,1,1,1,0,0,0,0,0,0,0,0,0,0,0,0,0,0,0,0,0,0,0,0,0,0,0,0,0,0,0,0,0,0,0,0,0,0,0,0,0,0,0,0,0,0,0,0,0,0,0,0,0,0,0,0,0,0],"id":9,"left_children":[1,3,5,7,9,11,13,15,17,19,21,23,25,27,29,31,33,35,37,39,41,43,45,-1,47,49,51,53,55,57,59,61,63,65,67,69,71,73,75,77,79,-1,81,83,85,87,89,-1,-1,91,93,95,97,99,101,103,105,107,109,111,113,-1,-1,-1,-1,-1,-1,-1,-1,-1,-1,-1,-1,-1,-1,-1,-1,-1,-1,-1,-1,-1,-1,-1,-1,-1,-1,-1,-1,-1,-1,-1,-1,-1,-1,-1,-1,-1,-1,-1,-1,-1,-1,-1,-1,-1,-1,-1,-1,-1,-1,-1,-1,-1,-1],"loss_changes":[4.1536484E3,1.4852617E3,5.187998E2,1.0871133E3,4.6940186E2,1.3771814E2,3.0913086E2,4.9718506E2,7.3995703E2,1.4524583E2,3.361372E2,1.5001205E2,1.4134619E2,2.335166E2,8.707178E1,3.2183203E2,1.4018726E2,5.025625E2,4.668291E2,4.762229E1,1.3799234E2,3.013291E2,1.3589185E2,0E0,2.7623566E1,1.4735577E2,1.10072754E2,2.1362549E2,1.4413544E2,6.0502686E1,7.820288E1,3.0759875E2,1.8708447E2,1.917095E2,6.7676094E1,7.6760547E2,2.265E2,3.196162E2,4.3470312E2,1.4153613E1,5.833847E1,0E0,1.638305E2,2.2349146E2,2.286189E2,1.5379175E2,3.2537183E2,0E0,0E0,5.935443E1,7.594913E1,1.1533386E2,5.488237E1,1.7190088E2,8.473503E1,5.8266075E1,8.146271E1,6.834204E1,1.0489584E2,8.302869E1,4.4126324E1,0E0,0E0,0E0,0E0,0E0,0E0,0E0,0E0,0E0,0E0,0E0,0E0,0E0,0E0,0E0,0E0,0E0,0E0,0E0,0E0,0E0,0E0,0E0,0E0,0E0,0E0,0E0,0E0,0E0,0E0,0E0,0E0,0E0,0E0,0E0,0E0,0E0,0E0,0E0,0E0,0E0,0E0,0E0,0E0,0E0,0E0,0E0,0E0,0E0,0E0,0E0,0E0,0E0,0E0],"parents":[2147483647,0,0,1,1,2,2,3,3,4,4,5,5,6,6,7,7,8,8,9,9,10,10,11,11,12,12,13,13,14,14,15,15,16,16,17,17,18,18,19,19,20,20,21,21,22,22,24,24,25,25,26,26,27,27,28,28,29,29,30,30,31,31,32,32,33,33,34,34,35,35,36,36,37,37,38,38,39,39,40,40,42,42,43,43,44,44,45,45,46,46,49,49,50,50,51,51,52,52,53,53,54,54,55,55,56,56,57,57,58,58,59,59,60,60],"right_children":[2,4,6,8,10,12,14,16,18,20,22,24,26,28,30,32,34,36,38,40,42,44,46,-1,48,50,52,54,56,58,60,62,64,66,68,70,72,74,76,78,80,-1,82,84,86,88,90,-1,-1,92,94,96,98,100,102,104,106,108,110,112,114,-1,-1,-1,-1,-1,-1,-1,-1,-1,-1,-1,-1,-1,-1,-1,-1,-1,-1,-1,-1,-1,-1,-1,-1,-1,-1,-1,-1,-1,-1,-1,-1,-1,-1,-1,-1,-1,-1,-1,-1,-1,-1,-1,-1,-1,-1,-1,-1,-1,-1,-1,-1,-1,-1],"split_conditions":[1.1004165E4,2.01E3,1.5E0,5E-1,1.0328866E0,1.106763E4,1.30491E4,5.5E0,9.5E0,4.65E1,5.415E2,2.5E0,7.2950006E-2,4.9E1,1.85E1,1.05E3,6.0067505E2,8.929609E3,1.15E1,9.3872E2,6.53755E3,5.5E0,4.353004E1,-3.7210458E-3,3.23495E2,4.8558002E2,6.29195E2,3.35E3,1.25E1,1.481077E4,5.65E1,1.35E1,3E0,1.9E1,3.4215E3,1.3088468E0,8.990846E3,1.5286727E0,3.5E0,2.0145E3,7.5299E2,-5.885065E-3,1.2019E4,1.416E3,1.5E0,2.0085E3,7.3939453E3,9.003239E-3,7.53653E-2,3.9339502E2,1.1433404E4,5E-1,5.36E2,1.85E1,1.6E1,1.119352E4,1.19673E3,4E1,2.107E3,1.4981668E0,5.8070004E-1,6.321608E-2,-6.3152425E-3,2.9247075E-2,1.10452175E-1,1.7995296E-2,1.00359835E-1,-3.765214E-3,1.9706015E-2,7.306177E-2,4.8572514E-2,1.0404251E-2,4.2868633E-2,3.274346E-2,9.760858E-3,3.0517224E-2,5.1028114E-2,6.1424903E-4,9.835662E-3,-6.326542E-4,4.5492876E-2,6.7971535E-2,1.9624313E-2,6.9887913E-3,3.3646643E-2,6.0804315E-2,2.4716292E-2,8.832859E-3,2.4344657E-2,6.926051E-2,2.3958106E-2,7.6484114E-2,-2.6643726E-3,6.9739744E-2,1.582261E-2,1.0962365E-2,2.2073068E-2,1.2948566E-2,4.5554E-3,2.9668795E-2,5.3598687E-2,8.863472E-3,2.7910661E-2,3.0042276E-2,7.2889505E-3,2.9014663E-3,6.501477E-2,2.0484127E-2,5.738744E-3,3.022376E-2,7.4823466E-3,2.7742215E-2,5.1746727E-4,3.43268E-3,4.4125073E-2],"split_indices":[6,31,19,19,11,6,6,29,29,22,10,20,12,29,20,31,3,6,20,3,6,19,30,0,2,3,3,31,26,6,29,20,24,27,1,11,6,11,19,9,4,0,14,7,24,9,6,0,0,2,6,19,10,25,20,6,4,29,7,11,12,0,0,0,0,0,0,0,0,0,0,0,0,0,0,0,0,0,0,0,0,0,0,0,0,0,0,0,0,0,0,0,0,0,0,0,0,0,0,0,0,0,0,0,0,0,0,0,0,0,0,0,0,0,0],"split_type":[0,0,0,0,0,0,0,0,0,0,0,0,0,0,0,0,0,0,0,0,0,0,0,0,0,0,0,0,0,0,0,0,0,0,0,0,0,0,0,0,0,0,0,0,0,0,0,0,0,0,0,0,0,0,0,0,0,0,0,0,0,0,0,0,0,0,0,0,0,0,0,0,0,0,0,0,0,0,0,0,0,0,0,0,0,0,0,0,0,0,0,0,0,0,0,0,0,0,0,0,0,0,0,0,0,0,0,0,0,0,0,0,0,0,0],"sum_hessian":[6.396E3,3.925E3,2.471E3,2.87E3,1.055E3,7.7E2,1.701E3,5.48E2,2.322E3,1.54E2,9.01E2,1.2E1,7.58E2,1.034E3,6.67E2,4E2,1.48E2,1.471E3,8.51E2,1.11E2,4.3E1,5.03E2,3.98E2,4E0,8E0,4.3E1,7.15E2,9.17E2,1.17E2,4.51E2,2.16E2,6.1E1,3.39E2,8.1E1,6.7E1,8E2,6.71E2,3.94E2,4.57E2,1.01E2,1E1,1E1,3.3E1,4.07E2,9.6E1,2.9E2,1.08E2,1E0,7E0,8E0,3.5E1,3.87E2,3.28E2,8.11E2,1.06E2,1.07E2,1E1,2.88E2,1.63E2,1.88E2,2.8E1,5.4E1,7E0,3.37E2,2E0,7.9E1,2E0,5.2E1,1.5E1,1.67E2,6.33E2,2.3E1,6.48E2,3.18E2,7.6E1,1.72E2,2.85E2,8.1E1,2E1,5E0,5E0,1E1,2.3E1,3.5E1,3.72E2,7E1,2.6E1,9.8E1,1.92E2,1.9E1,8.9E1,7E0,1E0,2E0,3.3E1,2.2E2,1.67E2,1.29E2,1.99E2,7.79E2,3.2E1,7.1E1,3.5E1,1.2E1,9.5E1,3E0,7E0,2.51E2,3.7E1,2.3E1,1.4E2,1.76E2,1.2E1,2.6E1,2E0],"tree_param":{"num_deleted":"0","num_feature":"33","num_nodes":"115","size_leaf_vector":"0"}},{"base_weights":[3.0560114E0,3.6892178E0,2.0491247E0,4.0592103E0,2.6798065E0,1.3719195E0,2.3546925E0,4.321615E0,2.6303525E0,1.0739248E0,2.9527907E0,4.59313E0,1.3149397E0,2.6952546E0,1.8235002E0,4.5660334E0,3.1808004E0,3.211641E0,1.1680057E0,4.655098E-1,2.59821E0,3.4939764E0,2.2617872E0,-3.6912775E-1,6.839592E0,3.0495198E0,1.206509E0,2.8637297E0,1.3617332E0,1.5684708E0,2.3463101E0,5.3750653E0,4.1525693E0,3.496279E0,1.6611804E0,4.20766E0,2.2968094E0,4.4334343E-1,3.0277348E0,2.4946341E-1,2.4265301E0,1.8382018E0,7.105229E0,2.8614557E0,4.465156E0,2.8308713E0,1.6458434E0,8.958223E-1,7.470586E0,6.6801887E0,2.0571437E0,1.6306851E0,8.457473E-1,3.0372102E0,1.5204599E0,9.9977714E-1,4.7916903E0,1.8430912E0,1.0749722E0,2.5757728E0,7.6993996E-1,5.8104277E0,3.4076982E0,1.5992862E0,4.3576107E0,2.2975502E0,3.99535E0,2.0916748E0,-3.946999E-1,5.8096924E0,2.841614E0,1.6527818E0,3.6016524E0,1.4130768E0,-3.0114567E-1,4.602699E0,2.2402702E-1,1.8846748E0,1.634887E-1,-6.273822E-2,4.511377E0,4.660279E0,5.6309015E-1,1.0914539E1,-3.4226212E-1,6.5504724E-1,3.0972009E0,5.636598E-1,4.806926E0,2.454982E0,6.8654656E0,1.4259496E0,3.7166963E0,7.581488E0,-2.6510507E-1,6.9274807E0,1.5669038E0,2.0225992E0,7.54925E-1,1.0438579E0,-2.5795725E-1,1.7439587E0,3.2061293E0,8.776069E-1,2.7639308E0,2.9764962E0,7.21682E-1,2.8797057E-1,6.444589E0,2.02801E0,5.6828666E-1,2.9934115E0,7.408054E-1,2.746636E0,5.126902E-2,2.6832157E-1,3.8379743E0],"categories":[],"categories_nodes":[],"categories_segments":[],"categories_sizes":[],"default_left":[1,1,1,1,1,1,1,1,1,1,1,1,1,1,1,1,1,1,1,1,1,1,1,0,1,1,1,1,1,1,1,1,1,1,1,1,1,1,1,1,1,1,1,1,1,1,1,0,0,1,1,1,1,1,1,1,1,1,1,1,1,0,0,0,0,0,0,0,0,0,0,0,0,0,0,0,0,0,0,0,0,0,0,0,0,0,0,0,0,0,0,0,0,0,0,0,0,0,0,0,0,0,0,0,0,0,0,0,0,0,0,0,0,0,0,0,0],"id":10,"left_children":[1,3,5,7,9,11,13,15,17,19,21,23,25,27,29,31,33,35,37,39,41,43,45,-1,47,49,51,53,55,57,59,61,63,65,67,69,71,73,75,77,79,81,83,85,87,89,91,-1,-1,93,95,97,99,101,103,105,107,109,111,113,115,-1,-1,-1,-1,-1,-1,-1,-1,-1,-1,-1,-1,-1,-1,-1,-1,-1,-1,-1,-1,-1,-1,-1,-1,-1,-1,-1,-1,-1,-1,-1,-1,-1,-1,-1,-1,-1,-1,-1,-1,-1,-1,-1,-1,-1,-1,-1,-1,-1,-1,-1,-1,-1,-1,-1,-1],"loss_changes":[4.070961E3,1.4553867E3,5.083047E2,1.0650781E3,4.597583E2,1.3547253E2,3.0298438E2,6.613789E2,3.770691E2,1.425372E2,3.2941064E2,1.4744247E2,1.3907507E2,2.286289E2,8.538574E1,6.446836E2,2.008164E2,2.8191675E2,1.7250781E2,4.684587E1,1.3765549E2,2.9682568E2,1.351997E2,0E0,2.7062012E1,1.447894E2,1.08187744E2,2.0930469E2,1.4170569E2,5.9276E1,7.650952E1,5.549219E2,6.861836E2,2.0379785E2,6.808896E1,3.161355E2,1.360672E2,6.8289406E1,1.5793546E2,1.4031732E1,5.737021E1,1.377159E2,1.739545E2,1.5817773E2,2.5997217E2,2.95557E2,8.3041504E1,0E0,0E0,5.8348022E1,7.510011E1,1.1105023E2,8.5326324E1,1.7179395E2,8.31068E1,5.7221237E1,8.003026E1,6.697504E1,1.0291937E2,8.138342E1,4.3600677E1,0E0,0E0,0E0,0E0,0E0,0E0,0E0,0E0,0E0,0E0,0E0,0E0,0E0,0E0,0E0,0E0,0E0,0E0,0E0,0E0,0E0,0E0,0E0,0E0,0E0,0E0,0E0,0E0,0E0,0E0,0E0,0E0,0E0,0E0,0E0,0E0,0E0,0E0,0E0,0E0,0E0,0E0,0E0,0E0,0E0,0E0,0E0,0E0,0E0,0E0,0E0,0E0,0E0,0E0,0E0,0E0],"parents":[2147483647,0,0,1,1,2,2,3,3,4,4,5,5,6,6,7,7,8,8,9,9,10,10,11,11,12,12,13,13,14,14,15,15,16,16,17,17,18,18,19,19,20,20,21,21,22,22,24,24,25,25,26,26,27,27,28,28,29,29,30,30,31,31,32,32,33,33,34,34,35,35,36,36,37,37,38,38,39,39,40,40,41,41,42,42,43,43,44,44,45,45,46,46,49,49,50,50,51,51,52,52,53,53,54,54,55,55,56,56,57,57,58,58,59,59,60,60],"right_children":[2,4,6,8,10,12,14,16,18,20,22,24,26,28,30,32,34,36,38,40,42,44,46,-1,48,50,52,54,56,58,60,62,64,66,68,70,72,74,76,78,80,82,84,86,88,90,92,-1,-1,94,96,98,100,102,104,106,108,110,112,114,116,-1,-1,-1,-1,-1,-1,-1,-1,-1,-1,-1,-1,-1,-1,-1,-1,-1,-1,-1,-1,-1,-1,-1,-1,-1,-1,-1,-1,-1,-1,-1,-1,-1,-1,-1,-1,-1,-1,-1,-1,-1,-1,-1,-1,-1,-1,-1,-1,-1,-1,-1,-1,-1,-1,-1,-1],"split_conditions":[1.1004165E4,2.01E3,1.5E0,5.905E2,1.0328866E0,1.106763E4,1.30491E4,2.0135E3,2.95E1,4.65E1,5.415E2,2.5E0,7.2950006E-2,4.9E1,1.85E1,4.1739E2,1.4315252E0,2.273E3,3.16E3,9.3872E2,1.15E1,3.5E0,9.45382E3,-3.6912775E-3,3.23495E2,4.8558002E2,9.52315E4,3.35E3,1.25E1,1.481077E4,5.65E1,2.0125E3,6.649915E3,2.5725E3,1.320745E5,1.3756285E0,3.1595E3,1.4001986E0,1.35E1,5.43255E4,7.5299E2,1.1483E4,5E-1,1.416E3,2.3795E3,3.75E2,1.05E1,8.958222E-3,7.4705854E-2,3.9339502E2,1.1433404E4,5.6865E3,1.4473E4,1.127388E4,1.6E1,1.119352E4,1.19673E3,4E1,2.107E3,1.4981668E0,5.3645E-1,5.8104277E-2,3.407698E-2,1.5992861E-2,4.3576106E-2,2.29755E-2,3.9953496E-2,2.0916747E-2,-3.946999E-3,5.8096923E-2,2.841614E-2,1.6527819E-2,3.6016524E-2,1.4130767E-2,-3.0114567E-3,4.6026986E-2,2.2402701E-3,1.8846747E-2,1.634887E-3,-6.2738213E-4,4.511377E-2,4.6602786E-2,5.6309015E-3,1.0914539E-1,-3.4226212E-3,6.550472E-3,3.0972008E-2,5.6365975E-3,4.8069257E-2,2.454982E-2,6.865466E-2,1.4259496E-2,3.716696E-2,7.581488E-2,-2.6510507E-3,6.9274805E-2,1.5669039E-2,2.0225992E-2,7.54925E-3,1.0438579E-2,-2.5795724E-3,1.7439587E-2,3.2061294E-2,8.776069E-3,2.7639307E-2,2.9764961E-2,7.21682E-3,2.8797057E-3,6.444589E-2,2.0280099E-2,5.6828666E-3,2.9934114E-2,7.4080536E-3,2.7466359E-2,5.126902E-4,2.6832158E-3,3.8379744E-2],"split_indices":[6,31,19,10,11,6,6,9,29,22,10,20,12,29,20,3,11,7,1,3,25,19,6,0,2,3,5,31,26,6,29,9,6,14,5,11,1,11,13,5,4,14,0,7,14,30,25,0,0,2,6,14,6,6,20,6,4,29,7,11,12,0,0,0,0,0,0,0,0,0,0,0,0,0,0,0,0,0,0,0,0,0,0,0,0,0,0,0,0,0,0,0,0,0,0,0,0,0,0,0,0,0,0,0,0,0,0,0,0,0,0,0,0,0,0,0,0],"split_type":[0,0,0,0,0,0,0,0,0,0,0,0,0,0,0,0,0,0,0,0,0,0,0,0,0,0,0,0,0,0,0,0,0,0,0,0,0,0,0,0,0,0,0,0,0,0,0,0,0,0,0,0,0,0,0,0,0,0,0,0,0,0,0,0,0,0,0,0,0,0,0,0,0,0,0,0,0,0,0,0,0,0,0,0,0,0,0,0,0,0,0,0,0,0,0,0,0,0,0,0,0,0,0,0,0,0,0,0,0,0,0,0,0,0,0,0,0],"sum_hessian":[6.396E3,3.925E3,2.471E3,2.87E3,1.055E3,7.7E2,1.701E3,2.423E3,4.47E2,1.54E2,9.01E2,1.2E1,7.58E2,1.034E3,6.67E2,1.993E3,4.3E2,3.19E2,1.28E2,1.11E2,4.3E1,5.03E2,3.98E2,4E0,8E0,4.3E1,7.15E2,9.17E2,1.17E2,4.51E2,2.16E2,6.7E2,1.323E3,3.55E2,7.5E1,1.51E2,1.68E2,9.3E1,3.5E1,1.01E2,1E1,3.8E1,5E0,3.07E2,1.96E2,2.05E2,1.93E2,1E0,7E0,8E0,3.5E1,3.27E2,3.88E2,8.11E2,1.06E2,1.07E2,1E1,2.88E2,1.63E2,1.88E2,2.8E1,5.47E2,1.23E2,9.9E1,1.224E3,1.06E2,2.49E2,6.2E1,1.3E1,6.8E1,8.3E1,1.14E2,5.4E1,4E1,5.3E1,2.2E1,1.3E1,4E0,9.7E1,5E0,5E0,1.1E1,2.7E1,3E0,2E0,3E1,2.77E2,1.6E1,1.8E2,1.89E2,1.6E1,1.76E2,1.7E1,7E0,1E0,2E0,3.3E1,2.25E2,1.02E2,3.29E2,5.9E1,9.5E1,7.16E2,7.1E1,3.5E1,1.2E1,9.5E1,3E0,7E0,2.51E2,3.7E1,2.3E1,1.4E2,1.76E2,1.2E1,2.5E1,3E0],"tree_param":{"num_deleted":"0","num_feature":"33","num_nodes":"117","size_leaf_vector":"0"}},{"base_weights":[3.0256834E0,3.652552E0,2.0288749E0,4.0187683E0,2.6534429E0,1.3585553E0,2.331335E0,2.7592402E0,4.3147054E0,1.0646238E0,2.9235241E0,4.5533504E0,1.3020456E0,2.6684859E0,1.8054633E0,3.3288155E0,1.2078378E0,4.7418823E0,3.5716078E0,4.614348E-1,2.5758178E0,3.4592175E0,2.2395318E0,-3.6617473E-1,6.780492E0,3.0226178E0,1.1944937E0,2.835186E0,1.3489999E0,1.5529262E0,2.3231654E0,5.4323473E0,2.9354396E0,2.0722752E0,1.4766559E-1,5.279074E0,4.094512E0,2.7693634E0,4.2557015E0,2.4716957E-1,2.4063091E0,1.8211591E0,7.0517974E0,3.0746868E0,5.040964E0,2.372581E0,-2.683331E-1,8.9134324E-1,7.4052176E0,6.621516E0,2.0389318E0,1.5507984E0,7.706616E-1,2.2700803E0,3.2482944E0,9.901218E-1,4.749894E0,2.1799796E0,1.3374777E0,2.5501633E0,7.6365656E-1,6.2182736E0,-6.499389E-1,2.855772E0,1.0932846E1,1.750993E0,9.949043E0,-4.5829532E-1,1.7345277E0,7.188904E0,4.764673E0,9.920406E-1,4.2029324E0,3.1686125E0,7.311577E-1,2.9838035E0,5.0101867E0,-4.8411906E-1,4.3143654E-1,-6.2215406E-2,4.4737825E0,4.6175594E0,5.5766034E-1,1.0832682E1,-3.3998036E-1,6.823068E-1,3.2973435E0,5.973689E0,2.4015393E0,3.2888439E0,1.9141283E0,2.5857582E0,-5.403256E-1,7.5151505E0,-2.6377955E-1,6.8812976E0,1.5516956E0,3.336327E-1,1.794706E0,1.2711535E0,4.4148856E-1,2.5060554E0,6.106081E-1,3.4421647E0,1.0374901E0,2.949021E0,7.145404E-1,2.8581077E-1,6.3881993E0,2.4812667E0,1.7951652E-1,1.6752794E0,8.209408E-1,2.7193248E0,5.0795753E-2,3.3605653E-1,4.3575044E0],"categories":[],"categories_nodes":[],"categories_segments":[],"categories_sizes":[],"default_left":[1,1,1,1,1,1,1,1,1,1,1,1,1,1,1,1,1,1,1,1,1,1,1,0,1,1,1,1,1,1,1,1,1,1,1,1,1,1,1,1,1,1,1,1,1,1,1,0,0,1,1,1,1,1,1,1,1,1,1,1,1,0,0,0,0,0,0,0,0,0,0,0,0,0,0,0,0,0,0,0,0,0,0,0,0,0,0,0,0,0,0,0,0,0,0,0,0,0,0,0,0,0,0,0,0,0,0,0,0,0,0,0,0,0,0,0,0],"id":11,"left_children":[1,3,5,7,9,11,13,15,17,19,21,23,25,27,29,31,33,35,37,39,41,43,45,-1,47,49,51,53,55,57,59,61,63,65,67,69,71,73,75,77,79,81,83,85,87,89,91,-1,-1,93,95,97,99,101,103,105,107,109,111,113,115,-1,-1,-1,-1,-1,-1,-1,-1,-1,-1,-1,-1,-1,-1,-1,-1,-1,-1,-1,-1,-1,-1,-1,-1,-1,-1,-1,-1,-1,-1,-1,-1,-1,-1,-1,-1,-1,-1,-1,-1,-1,-1,-1,-1,-1,-1,-1,-1,-1,-1,-1,-1,-1,-1,-1,-1],"loss_changes":[3.9898672E3,1.4258164E3,4.9801855E2,1.0582344E3,4.500288E2,1.3326538E2,2.9694336E2,4.8109814E2,7.2046094E2,1.4009944E2,3.2275488E2,1.4491708E2,1.3684326E2,2.2383252E2,8.3726074E1,3.1587256E2,1.3624542E2,4.9029297E2,4.5580078E2,4.607776E1,1.3578241E2,2.9104834E2,1.3377063E2,0E0,2.6511322E1,1.4226733E2,1.0693042E2,2.069336E2,1.3931682E2,5.8148438E1,7.4871704E1,3.0041577E2,1.8540381E2,1.9009384E2,6.618211E1,7.5266406E2,2.218711E2,3.1911523E2,4.2456055E2,1.3953604E1,5.641803E1,1.3522166E2,1.7136761E2,2.1508374E2,2.244541E2,1.5290869E2,1.769927E1,0E0,0E0,5.7358795E1,7.425984E1,1.1458917E2,5.3641037E1,1.5158325E2,2.2273389E2,5.61951E1,7.8623E1,6.8263916E1,5.777588E1,7.977063E1,4.3100784E1,0E0,0E0,0E0,0E0,0E0,0E0,0E0,0E0,0E0,0E0,0E0,0E0,0E0,0E0,0E0,0E0,0E0,0E0,0E0,0E0,0E0,0E0,0E0,0E0,0E0,0E0,0E0,0E0,0E0,0E0,0E0,0E0,0E0,0E0,0E0,0E0,0E0,0E0,0E0,0E0,0E0,0E0,0E0,0E0,0E0,0E0,0E0,0E0,0E0,0E0,0E0,0E0,0E0,0E0,0E0,0E0],"parents":[2147483647,0,0,1,1,2,2,3,3,4,4,5,5,6,6,7,7,8,8,9,9,10,10,11,11,12,12,13,13,14,14,15,15,16,16,17,17,18,18,19,19,20,20,21,21,22,22,24,24,25,25,26,26,27,27,28,28,29,29,30,30,31,31,32,32,33,33,34,34,35,35,36,36,37,37,38,38,39,39,40,40,41,41,42,42,43,43,44,44,45,45,46,46,49,49,50,50,51,51,52,52,53,53,54,54,55,55,56,56,57,57,58,58,59,59,60,60],"right_children":[2,4,6,8,10,12,14,16,18,20,22,24,26,28,30,32,34,36,38,40,42,44,46,-1,48,50,52,54,56,58,60,62,64,66,68,70,72,74,76,78,80,82,84,86,88,90,92,-1,-1,94,96,98,100,102,104,106,108,110,112,114,116,-1,-1,-1,-1,-1,-1,-1,-1,-1,-1,-1,-1,-1,-1,-1,-1,-1,-1,-1,-1,-1,-1,-1,-1,-1,-1,-1,-1,-1,-1,-1,-1,-1,-1,-1,-1,-1,-1,-1,-1,-1,-1,-1,-1,-1,-1,-1,-1,-1,-1,-1,-1,-1,-1,-1,-1],"split_conditions":[1.1004165E4,2.01E3,1.5E0,5E-1,1.0328866E0,1.106763E4,1.30491E4,5.5E0,9.5E0,4.65E1,5.415E2,2.5E0,7.2950006E-2,4.9E1,1.85E1,1.05E3,6.0067505E2,8.929609E3,1.15E1,9.3872E2,1.15E1,5.5E0,6.62E2,-3.661747E-3,3.23495E2,4.8558002E2,6.29195E2,1.05E1,1.25E1,5.035E2,5.65E1,1.35E1,3E0,1.9E1,3.382E3,1.3088468E0,8.990846E3,3.5E0,3.5E0,2.54695E2,7.5299E2,1.1483E4,5E-1,1.416E3,1.5E0,1.016495E5,1.1217885E0,8.913432E-3,7.405218E-2,3.9339502E2,1.1433404E4,1.1171234E0,5.36E2,3.375E3,1.4935045E0,1.119352E4,1.19673E3,1.5125793E0,7.0412E2,1.4981668E0,5.8070004E-1,6.2182736E-2,-6.4993887E-3,2.855772E-2,1.09328456E-1,1.750993E-2,9.9490434E-2,-4.582953E-3,1.7345278E-2,7.1889035E-2,4.764673E-2,9.920405E-3,4.202932E-2,3.1686123E-2,7.311577E-3,2.9838035E-2,5.0101865E-2,-4.8411903E-3,4.3143653E-3,-6.2215404E-4,4.4737823E-2,4.617559E-2,5.576603E-3,1.08326815E-1,-3.3998035E-3,6.823068E-3,3.2973435E-2,5.973689E-2,2.4015393E-2,3.288844E-2,1.9141283E-2,2.585758E-2,-5.4032556E-3,7.51515E-2,-2.6377954E-3,6.8812974E-2,1.5516955E-2,3.336327E-3,1.794706E-2,1.2711534E-2,4.414886E-3,2.5060553E-2,6.106081E-3,3.4421645E-2,1.0374901E-2,2.949021E-2,7.145404E-3,2.8581077E-3,6.388199E-2,2.4812667E-2,1.7951652E-3,1.6752793E-2,8.209407E-3,2.7193248E-2,5.0795753E-4,3.3605653E-3,4.357504E-2],"split_indices":[6,31,19,19,11,6,6,29,29,22,10,20,12,29,20,31,3,6,20,3,25,19,10,0,2,3,3,20,26,10,29,20,24,27,7,11,6,17,19,2,4,14,0,7,24,5,11,0,0,2,6,11,10,31,11,6,4,11,3,11,12,0,0,0,0,0,0,0,0,0,0,0,0,0,0,0,0,0,0,0,0,0,0,0,0,0,0,0,0,0,0,0,0,0,0,0,0,0,0,0,0,0,0,0,0,0,0,0,0,0,0,0,0,0,0,0,0],"split_type":[0,0,0,0,0,0,0,0,0,0,0,0,0,0,0,0,0,0,0,0,0,0,0,0,0,0,0,0,0,0,0,0,0,0,0,0,0,0,0,0,0,0,0,0,0,0,0,0,0,0,0,0,0,0,0,0,0,0,0,0,0,0,0,0,0,0,0,0,0,0,0,0,0,0,0,0,0,0,0,0,0,0,0,0,0,0,0,0,0,0,0,0,0,0,0,0,0,0,0,0,0,0,0,0,0,0,0,0,0,0,0,0,0,0,0,0,0],"sum_hessian":[6.396E3,3.925E3,2.471E3,2.87E3,1.055E3,7.7E2,1.701E3,5.48E2,2.322E3,1.54E2,9.01E2,1.2E1,7.58E2,1.034E3,6.67E2,4E2,1.48E2,1.471E3,8.51E2,1.11E2,4.3E1,5.03E2,3.98E2,4E0,8E0,4.3E1,7.15E2,9.17E2,1.17E2,4.51E2,2.16E2,6.1E1,3.39E2,8.1E1,6.7E1,8E2,6.71E2,3.94E2,4.57E2,1.01E2,1E1,3.8E1,5E0,4.07E2,9.6E1,3.78E2,2E1,1E0,7E0,8E0,3.5E1,3.87E2,3.28E2,3.9E2,5.27E2,1.07E2,1E1,1.13E2,3.38E2,1.88E2,2.8E1,5.4E1,7E0,3.37E2,2E0,7.9E1,2E0,4.9E1,1.8E1,1.67E2,6.33E2,2.3E1,6.48E2,3.29E2,6.5E1,1.72E2,2.85E2,2E1,8.1E1,5E0,5E0,1.1E1,2.7E1,3E0,2E0,3.5E1,3.72E2,7E1,2.6E1,1.24E2,2.54E2,1E0,1.9E1,7E0,1E0,2E0,3.3E1,6.5E1,3.22E2,1.29E2,1.99E2,3.41E2,4.9E1,4.84E2,4.3E1,1.2E1,9.5E1,3E0,7E0,9.8E1,1.5E1,2.03E2,1.35E2,1.76E2,1.2E1,2.6E1,2E0],"tree_param":{"num_deleted":"0","num_feature":"33","num_nodes":"117","size_leaf_vector":"0"}},{"base_weights":[2.9956753E0,3.7554212E0,2.1884592E0,4.122189E0,2.5640204E0,1.5296149E0,2.4858727E0,4.3926888E0,2.635663E0,2.0282617E0,3.4585788E0,2.3640468E0,1.2810333E0,2.8060365E0,1.7957481E0,4.6433506E0,3.0128887E0,3.2220337E0,1.0747505E0,4.8222092E-1,2.3569894E0,4.8341866E0,2.6516979E0,-1.8531807E-1,2.8125274E0,1.6826143E0,8.2202977E-1,2.9601376E0,1.3570417E0,1.9107288E0,7.152423E-1,4.1455407E0,5.366657E0,3.4393988E0,1.2873423E0,4.27526E0,2.1756885E0,3.611638E-1,2.9180372E0,1.3949142E-3,2.615799E0,2.1043434E0,4.1816764E0,3.5947957E0,7.144258E0,2.5095332E0,1.0439843E1,-7.9495347E-1,9.98593E-1,3.991909E0,1.882417E0,4.9346495E0,1.5334854E0,1.0747617E0,2.5105813E-1,2.8816254E0,5.459034E0,1.1040118E0,4.270034E0,1.6054763E0,2.5253751E0,-4.820566E-1,1.3947128E0,4.307333E0,8.284147E-1,6.0322714E0,4.387017E0,-1.8931183E-1,3.643364E0,-2.6307404E-1,1.8197453E0,5.9895797E0,2.8757272E0,1.5047921E0,3.71652E0,2.6679025E0,2.647019E-2,1.6499138E0,6.8490267E0,-2.3675647E-1,1.9362006E0,4.8768353E0,-2.5484186E-1,4.8745704E0,1.9423947E0,5.6805797E0,-2.90801E-1,-7.559177E-1,4.082466E0,-6.8853533E-1,7.877195E0,3.7414012E0,1.6767774E0,-1.6882952E-1,2.1941538E0,4.6697617E0,1.1254277E0,3.1678832E0,8.226702E-1,7.449393E0,2.4293895E0,2.772986E-1,1.7807032E0,1.5733569E0,6.219463E-1,9.008432E-1,-3.5753256E-1,3.027939E0,1.6598588E0,6.439535E0,1.4751939E0,1.0067319E0,4.95147E0,2.4857487E-1,5.7470093E0,2.3254018E0,1.3587738E0,3.1761389E0,1.8816156E0,2.3521984E-1,-5.217439E-1,6.2621737E0,8.7309885E-1],"categories":[],"categories_nodes":[],"categories_segments":[],"categories_sizes":[],"default_left":[1,1,1,1,1,1,1,1,1,1,1,1,1,1,1,1,1,1,1,1,1,1,1,1,1,1,1,1,1,1,1,1,1,1,1,1,1,1,1,1,1,1,1,1,1,1,0,0,1,1,1,1,1,1,1,1,1,1,1,1,1,1,1,0,0,0,0,0,0,0,0,0,0,0,0,0,0,0,0,0,0,0,0,0,0,0,0,0,0,0,0,0,0,0,0,0,0,0,0,0,0,0,0,0,0,0,0,0,0,0,0,0,0,0,0,0,0,0,0,0,0,0,0],"id":12,"left_children":[1,3,5,7,9,11,13,15,17,19,21,23,25,27,29,31,33,35,37,39,41,43,45,47,49,51,53,55,57,59,61,63,65,67,69,71,73,75,77,79,81,83,85,87,89,91,-1,-1,93,95,97,99,101,103,105,107,109,111,113,115,117,119,121,-1,-1,-1,-1,-1,-1,-1,-1,-1,-1,-1,-1,-1,-1,-1,-1,-1,-1,-1,-1,-1,-1,-1,-1,-1,-1,-1,-1,-1,-1,-1,-1,-1,-1,-1,-1,-1,-1,-1,-1,-1,-1,-1,-1,-1,-1,-1,-1,-1,-1,-1,-1,-1,-1,-1,-1,-1,-1,-1,-1],"loss_changes":[3.9149258E3,1.4288008E3,6.0442285E2,1.00051953E3,3.6585498E2,1.977583E2,4.671377E2,7.220078E2,3.534934E2,2.4738623E2,3.0906738E2,2.5319946E2,1.3649353E2,3.2154297E2,8.3114746E1,6.2551953E2,2.3844019E2,3.025752E2,1.4100336E2,8.9247894E1,1.7698315E2,2.778047E2,1.7863269E2,2.5333475E1,1.9871313E2,1.8545166E2,5.0380463E1,2.4265625E2,9.995038E1,1.1114551E2,5.5178787E1,5.706836E2,4.4954102E2,1.9608398E2,5.5783638E1,3.1867017E2,1.4326581E2,6.0921394E1,1.3824908E2,3.3634327E1,1.050928E2,1.5024548E2,3.23435E2,1.5372772E2,2.1209741E2,1.8145618E2,0E0,0E0,1.7119133E1,1.540747E2,1.4315662E2,8.900397E1,1.18137024E2,5.388394E1,4.342647E1,2.2360938E2,1.428407E2,4.442021E1,6.3906998E1,7.019214E1,7.864868E1,8.3439445E-1,1.0370672E2,0E0,0E0,0E0,0E0,0E0,0E0,0E0,0E0,0E0,0E0,0E0,0E0,0E0,0E0,0E0,0E0,0E0,0E0,0E0,0E0,0E0,0E0,0E0,0E0,0E0,0E0,0E0,0E0,0E0,0E0,0E0,0E0,0E0,0E0,0E0,0E0,0E0,0E0,0E0,0E0,0E0,0E0,0E0,0E0,0E0,0E0,0E0,0E0,0E0,0E0,0E0,0E0,0E0,0E0,0E0,0E0,0E0,0E0,0E0,0E0],"parents":[2147483647,0,0,1,1,2,2,3,3,4,4,5,5,6,6,7,7,8,8,9,9,10,10,11,11,12,12,13,13,14,14,15,15,16,16,17,17,18,18,19,19,20,20,21,21,22,22,23,23,24,24,25,25,26,26,27,27,28,28,29,29,30,30,31,31,32,32,33,33,34,34,35,35,36,36,37,37,38,38,39,39,40,40,41,41,42,42,43,43,44,44,45,45,48,48,49,49,50,50,51,51,52,52,53,53,54,54,55,55,56,56,57,57,58,58,59,59,60,60,61,61,62,62],"right_children":[2,4,6,8,10,12,14,16,18,20,22,24,26,28,30,32,34,36,38,40,42,44,46,48,50,52,54,56,58,60,62,64,66,68,70,72,74,76,78,80,82,84,86,88,90,92,-1,-1,94,96,98,100,102,104,106,108,110,112,114,116,118,120,122,-1,-1,-1,-1,-1,-1,-1,-1,-1,-1,-1,-1,-1,-1,-1,-1,-1,-1,-1,-1,-1,-1,-1,-1,-1,-1,-1,-1,-1,-1,-1,-1,-1,-1,-1,-1,-1,-1,-1,-1,-1,-1,-1,-1,-1,-1,-1,-1,-1,-1,-1,-1,-1,-1,-1,-1,-1,-1,-1,-1],"split_conditions":[1.0303064E4,2.272E3,1.5E0,5.905E2,3.5E0,1.115693E4,1.3000301E4,2.0135E3,2.9E1,1.0328866E0,5.095E2,3.2797E2,6.29195E2,5.25E1,5.65E1,1.15E1,1.4315252E0,2.2895E3,3.16E3,8.32805E2,3.4495002E-1,4.925E2,2.35E1,5.15E1,1.05296E5,6.155E-2,6.075E2,2.05E1,1.35E1,1.75E1,4.0955E2,4.175E3,5.1848E2,-3.1591998E2,1.6165E-1,1.3756285E0,3.15E3,2.7815E3,4.6E1,9.88276E3,1.5E0,3.52675E2,5.4845E-1,2.011E3,1.5955E3,3.5E0,1.0439843E-1,-7.949535E-3,1.7E3,1.45E1,1.85E3,3.8727002E2,1.1171234E0,2.0125E3,1.25E1,3.35E3,3.48325E4,2.066505E3,2.0105E3,5.035E2,1.9795E-1,5.23495E2,4.1060498E2,4.307333E-2,8.284147E-3,6.0322713E-2,4.3870166E-2,-1.8931183E-3,3.6433637E-2,-2.6307404E-3,1.8197453E-2,5.9895795E-2,2.875727E-2,1.5047921E-2,3.71652E-2,2.6679024E-2,2.647019E-4,1.6499138E-2,6.849027E-2,-2.3675647E-3,1.9362006E-2,4.8768353E-2,-2.5484185E-3,4.8745703E-2,1.9423947E-2,5.6805797E-2,-2.9080098E-3,-7.559177E-3,4.082466E-2,-6.885353E-3,7.877195E-2,3.741401E-2,1.6767774E-2,-1.6882952E-3,2.1941537E-2,4.6697617E-2,1.1254277E-2,3.167883E-2,8.226702E-3,7.449393E-2,2.4293894E-2,2.772986E-3,1.7807031E-2,1.5733568E-2,6.2194625E-3,9.008432E-3,-3.5753255E-3,3.027939E-2,1.6598588E-2,6.439535E-2,1.4751938E-2,1.0067319E-2,4.95147E-2,2.4857486E-3,5.747009E-2,2.3254016E-2,1.3587738E-2,3.176139E-2,1.8816156E-2,2.3521984E-3,-5.217439E-3,6.2621735E-2,8.730988E-3],"split_indices":[6,31,19,10,28,6,6,9,29,11,10,2,3,29,29,20,11,7,1,3,12,10,27,8,5,12,10,25,26,20,2,1,3,4,12,11,7,14,8,6,26,3,12,14,7,29,0,0,31,22,31,2,11,9,29,31,14,3,9,10,12,1,2,0,0,0,0,0,0,0,0,0,0,0,0,0,0,0,0,0,0,0,0,0,0,0,0,0,0,0,0,0,0,0,0,0,0,0,0,0,0,0,0,0,0,0,0,0,0,0,0,0,0,0,0,0,0,0,0,0,0,0,0],"split_type":[0,0,0,0,0,0,0,0,0,0,0,0,0,0,0,0,0,0,0,0,0,0,0,0,0,0,0,0,0,0,0,0,0,0,0,0,0,0,0,0,0,0,0,0,0,0,0,0,0,0,0,0,0,0,0,0,0,0,0,0,0,0,0,0,0,0,0,0,0,0,0,0,0,0,0,0,0,0,0,0,0,0,0,0,0,0,0,0,0,0,0,0,0,0,0,0,0,0,0,0,0,0,0,0,0,0,0,0,0,0,0,0,0,0,0,0,0,0,0,0,0,0,0],"sum_hessian":[6.396E3,3.293E3,3.103E3,2.516E3,7.77E2,9.67E2,2.136E3,2.127E3,3.89E2,4.88E2,2.89E2,2.2E2,7.47E2,1.457E3,6.79E2,1.798E3,3.29E2,2.82E2,1.07E2,8.6E1,4.02E2,1.05E2,1.84E2,3.3E1,1.87E2,3.97E2,3.5E2,1.316E3,1.41E2,6.13E2,6.6E1,1.069E3,7.29E2,2.63E2,6.6E1,1.39E2,1.43E2,7.8E1,2.9E1,7.1E1,1.5E1,3.55E2,4.7E1,7E1,3.5E1,1.82E2,2E0,2.2E1,1.1E1,8.1E1,1.06E2,1.6E1,3.81E2,2.42E2,1.08E2,1.278E3,3.8E1,1.31E2,1E1,4.12E2,2.01E2,2.4E1,4.2E1,1.019E3,5E1,4.31E2,2.98E2,1.4E1,2.49E2,1.7E1,4.9E1,6.1E1,7.8E1,1.01E2,4.2E1,9E0,6.9E1,2.3E1,6E0,6.4E1,7E0,8E0,7E0,1.8E1,3.37E2,3.5E1,1.2E1,7E0,6.3E1,3E0,3.2E1,7.2E1,1.1E2,6E0,5E0,6.5E1,1.6E1,4.7E1,5.9E1,7E0,9E0,6.3E1,3.18E2,1.14E2,1.28E2,5.2E1,5.6E1,1.14E3,1.38E2,3E1,8E0,1.29E2,2E0,3E0,7E0,1.03E2,3.09E2,9.8E1,1.03E2,1E0,2.3E1,3E0,3.9E1],"tree_param":{"num_deleted":"0","num_feature":"33","num_nodes":"123","size_leaf_vector":"0"}},{"base_weights":[2.9659634E0,3.7181425E0,2.1667867E0,4.081149E0,2.5389574E0,1.5145842E0,2.461202E0,4.3488584E0,2.6099546E0,2.008358E0,3.4249024E0,2.3409047E0,1.2684191E0,2.7781446E0,1.7780199E0,4.5970035E0,2.9829116E0,3.1903112E0,1.0650394E0,4.7812527E-1,2.3337224E0,4.7868366E0,2.626038E0,-1.8310302E-1,2.7849226E0,1.6660881E0,8.138875E-1,2.9306319E0,1.344313E0,1.8917638E0,7.0911205E-1,4.104133E0,5.313133E0,3.4051356E0,1.2747012E0,4.2331405E0,2.1542943E0,3.5789323E-1,2.8916898E0,1.616987E-3,2.5925298E0,2.0834916E0,4.1409826E0,3.5593164E0,7.0748124E0,2.4847338E0,1.0370244E1,-7.873496E-1,9.9029475E-1,3.9526966E0,1.8639656E0,4.8911138E0,1.5182045E0,1.0641044E0,2.485974E-1,2.852846E0,5.406473E0,1.093423E0,4.232784E0,1.5895107E0,2.5003717E0,-4.7735062E-1,1.382425E0,4.264302E0,8.20293E-1,5.9720883E0,4.343293E0,-1.8754494E-1,3.607076E0,1.7437081E0,-4.6743646E-1,5.93065E0,2.847334E0,1.4898916E0,3.6802192E0,1.4450034E0,-3.371743E-1,1.6341021E0,6.7903204E0,-2.3442535E-1,1.9192588E0,4.8334856E0,-2.52612E-1,4.82839E0,1.9230282E0,5.625352E0,-2.881167E-1,-7.4930346E-1,4.0422797E0,-6.833713E-1,7.80081E0,3.7044995E0,1.6601607E0,-5.637388E-1,1.8377789E0,4.6237717E0,1.1148354E0,3.1368644E0,8.145806E-1,7.3842106E0,2.407525E0,2.7456895E-1,1.7629521E0,1.5577601E0,6.1577505E-1,8.920048E-1,-3.5401994E-1,2.9976864E0,1.6433797E0,6.377217E0,1.4620811E0,9.9674195E-1,4.9184604E0,2.4671055E-1,5.6967225E0,2.3023715E0,1.34523E0,2.6563756E0,2.7979154E-2,2.3404375E-1,-5.167439E-1,6.215207E0,8.645861E-1],"categories":[],"categories_nodes":[],"categories_segments":[],"categories_sizes":[],"default_left":[1,1,1,1,1,1,1,1,1,1,1,1,1,1,1,1,1,1,1,1,1,1,1,1,1,1,1,1,1,1,1,1,1,1,1,1,1,1,1,1,1,1,1,1,1,1,0,0,1,1,1,1,1,1,1,1,1,1,1,1,1,1,1,0,0,0,0,0,0,0,0,0,0,0,0,0,0,0,0,0,0,0,0,0,0,0,0,0,0,0,0,0,0,0,0,0,0,0,0,0,0,0,0,0,0,0,0,0,0,0,0,0,0,0,0,0,0,0,0,0,0,0,0],"id":13,"left_children":[1,3,5,7,9,11,13,15,17,19,21,23,25,27,29,31,33,35,37,39,41,43,45,47,49,51,53,55,57,59,61,63,65,67,69,71,73,75,77,79,81,83,85,87,89,91,-1,-1,93,95,97,99,101,103,105,107,109,111,113,115,117,119,121,-1,-1,-1,-1,-1,-1,-1,-1,-1,-1,-1,-1,-1,-1,-1,-1,-1,-1,-1,-1,-1,-1,-1,-1,-1,-1,-1,-1,-1,-1,-1,-1,-1,-1,-1,-1,-1,-1,-1,-1,-1,-1,-1,-1,-1,-1,-1,-1,-1,-1,-1,-1,-1,-1,-1,-1,-1,-1,-1,-1],"loss_changes":[3.837336E3,1.3996406E3,5.9229785E2,9.7997266E2,3.588452E2,1.9393286E2,4.5778516E2,7.075781E2,3.4627686E2,2.42349E2,3.029497E2,2.4818555E2,1.3384717E2,3.1483887E2,8.1333984E1,6.1316797E2,2.336709E2,2.966306E2,1.3846967E2,8.765103E1,1.7362207E2,2.7252344E2,1.7667603E2,2.4886442E1,1.9482068E2,1.8239185E2,4.938272E1,2.3821094E2,9.827756E1,1.0897339E2,5.4183563E1,5.592871E2,4.405918E2,1.9221045E2,5.5559067E1,3.124524E2,1.4050818E2,6.01808E1,1.3598996E2,3.304034E1,1.0323439E2,1.4751685E2,3.1719287E2,1.5077313E2,2.0809827E2,1.7790881E2,0E0,0E0,1.6840252E1,1.5100745E2,1.4037115E2,8.74834E1,1.157879E2,5.2821625E1,4.2578194E1,2.191289E2,1.4000671E2,4.3912292E1,6.27836E1,6.882178E1,7.783765E1,8.215437E-1,1.0223832E2,0E0,0E0,0E0,0E0,0E0,0E0,0E0,0E0,0E0,0E0,0E0,0E0,0E0,0E0,0E0,0E0,0E0,0E0,0E0,0E0,0E0,0E0,0E0,0E0,0E0,0E0,0E0,0E0,0E0,0E0,0E0,0E0,0E0,0E0,0E0,0E0,0E0,0E0,0E0,0E0,0E0,0E0,0E0,0E0,0E0,0E0,0E0,0E0,0E0,0E0,0E0,0E0,0E0,0E0,0E0,0E0,0E0,0E0,0E0,0E0],"parents":[2147483647,0,0,1,1,2,2,3,3,4,4,5,5,6,6,7,7,8,8,9,9,10,10,11,11,12,12,13,13,14,14,15,15,16,16,17,17,18,18,19,19,20,20,21,21,22,22,23,23,24,24,25,25,26,26,27,27,28,28,29,29,30,30,31,31,32,32,33,33,34,34,35,35,36,36,37,37,38,38,39,39,40,40,41,41,42,42,43,43,44,44,45,45,48,48,49,49,50,50,51,51,52,52,53,53,54,54,55,55,56,56,57,57,58,58,59,59,60,60,61,61,62,62],"right_children":[2,4,6,8,10,12,14,16,18,20,22,24,26,28,30,32,34,36,38,40,42,44,46,48,50,52,54,56,58,60,62,64,66,68,70,72,74,76,78,80,82,84,86,88,90,92,-1,-1,94,96,98,100,102,104,106,108,110,112,114,116,118,120,122,-1,-1,-1,-1,-1,-1,-1,-1,-1,-1,-1,-1,-1,-1,-1,-1,-1,-1,-1,-1,-1,-1,-1,-1,-1,-1,-1,-1,-1,-1,-1,-1,-1,-1,-1,-1,-1,-1,-1,-1,-1,-1,-1,-1,-1,-1,-1,-1,-1,-1,-1,-1,-1,-1,-1,-1,-1,-1,-1,-1],"split_conditions":[1.0303064E4,2.272E3,1.5E0,5.905E2,3.5E0,1.115693E4,1.3000301E4,2.0135E3,2.9E1,1.0328866E0,5.095E2,3.2797E2,6.29195E2,5.25E1,5.65E1,1.15E1,1.4315252E0,2.2895E3,3.16E3,8.32805E2,3.4495002E-1,4.925E2,2.35E1,5.15E1,1.05296E5,6.155E-2,6.075E2,2.05E1,1.35E1,1.75E1,4.0955E2,4.175E3,5.1848E2,-3.1591998E2,1.29043E5,1.3756285E0,3.15E3,1.4001986E0,4.6E1,9.88276E3,1.5E0,3.52675E2,5.4845E-1,2.011E3,1.5955E3,3.5E0,1.0370244E-1,-7.873496E-3,1.64E-1,1.45E1,1.85E3,3.8727002E2,1.1171234E0,2.0125E3,1.25E1,3.35E3,3.48325E4,2.066505E3,2.0105E3,5.035E2,1.4981668E0,5.23495E2,4.1060498E2,4.2643018E-2,8.20293E-3,5.972088E-2,4.3432932E-2,-1.8754493E-3,3.607076E-2,1.7437082E-2,-4.6743643E-3,5.9306502E-2,2.8473338E-2,1.4898916E-2,3.680219E-2,1.4450033E-2,-3.3717428E-3,1.6341021E-2,6.7903206E-2,-2.3442535E-3,1.9192588E-2,4.8334856E-2,-2.5261198E-3,4.82839E-2,1.9230282E-2,5.625352E-2,-2.8811668E-3,-7.4930345E-3,4.0422797E-2,-6.833713E-3,7.80081E-2,3.7044995E-2,1.6601605E-2,-5.637388E-3,1.8377788E-2,4.6237715E-2,1.1148353E-2,3.1368643E-2,8.145806E-3,7.38421E-2,2.407525E-2,2.7456894E-3,1.7629521E-2,1.5577601E-2,6.1577503E-3,8.920047E-3,-3.5401992E-3,2.9976863E-2,1.6433796E-2,6.3772164E-2,1.4620811E-2,9.967419E-3,4.91846E-2,2.4671054E-3,5.6967225E-2,2.3023715E-2,1.34523E-2,2.6563756E-2,2.7979154E-4,2.3404374E-3,-5.1674386E-3,6.215207E-2,8.645861E-3],"split_indices":[6,31,19,10,28,6,6,9,29,11,10,2,3,29,29,20,11,7,1,3,12,10,27,8,5,12,10,25,26,20,2,1,3,4,5,11,7,11,8,6,26,3,12,14,7,29,0,0,12,22,31,2,11,9,29,31,14,3,9,10,11,1,2,0,0,0,0,0,0,0,0,0,0,0,0,0,0,0,0,0,0,0,0,0,0,0,0,0,0,0,0,0,0,0,0,0,0,0,0,0,0,0,0,0,0,0,0,0,0,0,0,0,0,0,0,0,0,0,0,0,0,0,0],"split_type":[0,0,0,0,0,0,0,0,0,0,0,0,0,0,0,0,0,0,0,0,0,0,0,0,0,0,0,0,0,0,0,0,0,0,0,0,0,0,0,0,0,0,0,0,0,0,0,0,0,0,0,0,0,0,0,0,0,0,0,0,0,0,0,0,0,0,0,0,0,0,0,0,0,0,0,0,0,0,0,0,0,0,0,0,0,0,0,0,0,0,0,0,0,0,0,0,0,0,0,0,0,0,0,0,0,0,0,0,0,0,0,0,0,0,0,0,0,0,0,0,0,0,0],"sum_hessian":[6.396E3,3.293E3,3.103E3,2.516E3,7.77E2,9.67E2,2.136E3,2.127E3,3.89E2,4.88E2,2.89E2,2.2E2,7.47E2,1.457E3,6.79E2,1.798E3,3.29E2,2.82E2,1.07E2,8.6E1,4.02E2,1.05E2,1.84E2,3.3E1,1.87E2,3.97E2,3.5E2,1.316E3,1.41E2,6.13E2,6.6E1,1.069E3,7.29E2,2.63E2,6.6E1,1.39E2,1.43E2,7.8E1,2.9E1,7.1E1,1.5E1,3.55E2,4.7E1,7E1,3.5E1,1.82E2,2E0,2.2E1,1.1E1,8.1E1,1.06E2,1.6E1,3.81E2,2.42E2,1.08E2,1.278E3,3.8E1,1.31E2,1E1,4.12E2,2.01E2,2.4E1,4.2E1,1.019E3,5E1,4.31E2,2.98E2,1.4E1,2.49E2,5.2E1,1.4E1,6.1E1,7.8E1,1.01E2,4.2E1,3E1,4.8E1,2.3E1,6E0,6.4E1,7E0,8E0,7E0,1.8E1,3.37E2,3.5E1,1.2E1,7E0,6.3E1,3E0,3.2E1,7.2E1,1.1E2,4E0,7E0,6.5E1,1.6E1,4.7E1,5.9E1,7E0,9E0,6.3E1,3.18E2,1.14E2,1.28E2,5.2E1,5.6E1,1.14E3,1.38E2,3E1,8E0,1.29E2,2E0,3E0,7E0,1.03E2,3.09E2,1.89E2,1.2E1,1E0,2.3E1,3E0,3.9E1],"tree_param":{"num_deleted":"0","num_feature":"33","num_nodes":"123","size_leaf_vector":"0"}},{"base_weights":[2.9365385E0,3.545379E0,1.968398E0,3.9010372E0,2.575075E0,1.3197027E0,2.2610981E0,2.6659975E0,4.191238E0,1.0253344E0,2.8385282E0,4.4634485E0,1.2641186E0,2.5865982E0,1.7508811E0,3.2229414E0,1.1492162E0,4.6113963E0,3.4604106E0,4.3838897E-1,2.4960742E0,3.365912E0,2.1652448E0,-3.716037E-1,6.65365E0,2.9498532E0,1.1587604E0,2.74748E0,1.310345E0,1.679649E0,3.5863547E0,5.303499E0,2.8340662E0,1.9977314E0,1.0910631E-1,5.1388187E0,3.9758656E0,2.676887E0,4.1286016E0,2.2928858E-1,2.3374662E0,-6.804627E-1,3.4503634E0,2.9897313E0,4.9134984E0,2.7265418E0,1.5580677E0,8.667268E-1,7.268674E0,6.442611E0,1.9947232E0,1.558535E0,7.8696096E-1,2.19293E0,3.1532192E0,9.580539E-1,4.650081E0,1.8859897E0,9.7059506E-1,1.1168518E0,4.9936E0,6.082104E0,-7.123492E-1,2.7550545E0,1.0791373E1,1.6789523E0,9.8326E0,-4.8501363E-1,1.6668375E0,7.0278115E0,4.6301603E0,2.905936E0,4.296396E0,3.0705235E0,6.681456E-1,2.8753963E0,4.8722234E0,4.2207558E-2,9.488769E-1,-8.084891E-2,4.366204E0,6.5967298E0,1.8645135E0,6.3686687E-1,3.208802E0,5.832127E0,2.3158634E0,1.4536357E0,3.845975E0,1.3410251E0,3.60576E0,7.319599E0,-2.8664523E-1,6.80397E0,1.5117096E0,2.3754255E-1,1.7823856E0,9.785551E-1,-2.7046478E-1,2.4227588E0,5.724455E-1,3.3444083E0,9.697849E-1,2.9002116E0,6.850736E-1,2.7618212E-1,6.2557707E0,1.6485898E0,3.00137E0,2.711353E0,7.0668036E-1,-2.972872E-1,3.312382E0,5.414806E0,-4.516434E-1],"categories":[],"categories_nodes":[],"categories_segments":[],"categories_sizes":[],"default_left":[1,1,1,1,1,1,1,1,1,1,1,1,1,1,1,1,1,1,1,1,1,1,1,0,1,1,1,1,1,1,1,1,1,1,1,1,1,1,1,1,1,0,1,1,1,1,1,0,0,1,1,1,1,1,1,1,1,1,1,1,1,0,0,0,0,0,0,0,0,0,0,0,0,0,0,0,0,0,0,0,0,0,0,0,0,0,0,0,0,0,0,0,0,0,0,0,0,0,0,0,0,0,0,0,0,0,0,0,0,0,0,0,0,0,0],"id":14,"left_children":[1,3,5,7,9,11,13,15,17,19,21,23,25,27,29,31,33,35,37,39,41,43,45,-1,47,49,51,53,55,57,59,61,63,65,67,69,71,73,75,77,79,-1,81,83,85,87,89,-1,-1,91,93,95,97,99,101,103,105,107,109,111,113,-1,-1,-1,-1,-1,-1,-1,-1,-1,-1,-1,-1,-1,-1,-1,-1,-1,-1,-1,-1,-1,-1,-1,-1,-1,-1,-1,-1,-1,-1,-1,-1,-1,-1,-1,-1,-1,-1,-1,-1,-1,-1,-1,-1,-1,-1,-1,-1,-1,-1,-1,-1,-1,-1],"loss_changes":[3.7636875E3,1.3448008E3,4.663828E2,1.0178203E3,4.282373E2,1.290841E2,2.7813184E2,4.600703E2,6.9735547E2,1.3270857E2,3.1299316E2,1.4013913E2,1.3138477E2,2.0932275E2,8.1052E1,3.0940967E2,1.3128185E2,4.7297266E2,4.3500684E2,4.3938995E1,1.357266E2,2.787251E2,1.3173364E2,0E0,2.5731934E1,1.3393442E2,1.0519684E2,2.0008789E2,1.34379E2,9.224475E1,7.7827576E1,2.947389E2,1.8403467E2,1.8829419E2,6.374102E1,7.3710156E2,2.1797461E2,3.1028027E2,4.1280615E2,1.3691327E1,5.43204E1,0E0,1.5734894E2,2.0825757E2,2.1796118E2,2.8794568E2,8.138522E1,0E0,0E0,5.5211426E1,7.333989E1,1.0129907E2,7.5833176E1,1.446073E2,2.1758691E2,5.5271576E1,7.552663E1,1.26653076E2,6.561746E1,3.2032578E1,3.684912E1,0E0,0E0,0E0,0E0,0E0,0E0,0E0,0E0,0E0,0E0,0E0,0E0,0E0,0E0,0E0,0E0,0E0,0E0,0E0,0E0,0E0,0E0,0E0,0E0,0E0,0E0,0E0,0E0,0E0,0E0,0E0,0E0,0E0,0E0,0E0,0E0,0E0,0E0,0E0,0E0,0E0,0E0,0E0,0E0,0E0,0E0,0E0,0E0,0E0,0E0,0E0,0E0,0E0,0E0],"parents":[2147483647,0,0,1,1,2,2,3,3,4,4,5,5,6,6,7,7,8,8,9,9,10,10,11,11,12,12,13,13,14,14,15,15,16,16,17,17,18,18,19,19,20,20,21,21,22,22,24,24,25,25,26,26,27,27,28,28,29,29,30,30,31,31,32,32,33,33,34,34,35,35,36,36,37,37,38,38,39,39,40,40,42,42,43,43,44,44,45,45,46,46,49,49,50,50,51,51,52,52,53,53,54,54,55,55,56,56,57,57,58,58,59,59,60,60],"right_children":[2,4,6,8,10,12,14,16,18,20,22,24,26,28,30,32,34,36,38,40,42,44,46,-1,48,50,52,54,56,58,60,62,64,66,68,70,72,74,76,78,80,-1,82,84,86,88,90,-1,-1,92,94,96,98,100,102,104,106,108,110,112,114,-1,-1,-1,-1,-1,-1,-1,-1,-1,-1,-1,-1,-1,-1,-1,-1,-1,-1,-1,-1,-1,-1,-1,-1,-1,-1,-1,-1,-1,-1,-1,-1,-1,-1,-1,-1,-1,-1,-1,-1,-1,-1,-1,-1,-1,-1,-1,-1,-1,-1,-1,-1,-1,-1],"split_conditions":[1.1004165E4,2.01E3,1.5E0,5E-1,1.0328866E0,1.106763E4,1.30745E4,5.5E0,9.5E0,4.65E1,5.415E2,2.5E0,7.2950006E-2,4.9E1,4.15E1,1.05E3,6.0067505E2,8.929609E3,1.15E1,9.3872E2,6.53755E3,5.5E0,9.45382E3,-3.716037E-3,3.23495E2,4.8558002E2,9.77545E4,1.05E1,1.25E1,1.5502859E4,2.64E3,1.35E1,3E0,1.9E1,3.382E3,1.3088468E0,4.5E2,3.5E0,3.5E0,2.0145E3,7.5299E2,-6.804627E-3,1.2019E4,1.416E3,1.5E0,2.95E1,1.05E1,8.667268E-3,7.268674E-2,3.9339502E2,1.1433404E4,1.9965E3,1.4473E4,3.375E3,1.4935045E0,1.119352E4,1.19673E3,4.6091E2,2.205E3,5.9132E2,3.75E2,6.082104E-2,-7.1234917E-3,2.7550545E-2,1.0791373E-1,1.6789524E-2,9.8326E-2,-4.850136E-3,1.6668374E-2,7.0278116E-2,4.6301603E-2,2.905936E-2,4.2963956E-2,3.0705234E-2,6.6814558E-3,2.8753962E-2,4.8722234E-2,4.2207557E-4,9.488769E-3,-8.084891E-4,4.3662038E-2,6.59673E-2,1.8645134E-2,6.3686687E-3,3.208802E-2,5.832127E-2,2.3158634E-2,1.4536357E-2,3.8459748E-2,1.3410251E-2,3.60576E-2,7.319599E-2,-2.8664523E-3,6.80397E-2,1.5117096E-2,2.3754255E-3,1.7823856E-2,9.785551E-3,-2.7046478E-3,2.4227588E-2,5.7244548E-3,3.344408E-2,9.697849E-3,2.9002115E-2,6.850736E-3,2.761821E-3,6.2557705E-2,1.6485898E-2,3.00137E-2,2.711353E-2,7.0668035E-3,-2.972872E-3,3.3123817E-2,5.414806E-2,-4.516434E-3],"split_indices":[6,31,19,19,11,6,6,29,29,22,10,20,12,29,20,31,3,6,20,3,6,19,6,0,2,3,5,20,26,6,7,20,24,27,7,11,10,17,19,9,4,0,14,7,24,22,25,0,0,2,6,1,6,31,11,6,4,2,1,3,0,0,0,0,0,0,0,0,0,0,0,0,0,0,0,0,0,0,0,0,0,0,0,0,0,0,0,0,0,0,0,0,0,0,0,0,0,0,0,0,0,0,0,0,0,0,0,0,0,0,0,0,0,0,0],"split_type":[0,0,0,0,0,0,0,0,0,0,0,0,0,0,0,0,0,0,0,0,0,0,0,0,0,0,0,0,0,0,0,0,0,0,0,0,0,0,0,0,0,0,0,0,0,0,0,0,0,0,0,0,0,0,0,0,0,0,0,0,0,0,0,0,0,0,0,0,0,0,0,0,0,0,0,0,0,0,0,0,0,0,0,0,0,0,0,0,0,0,0,0,0,0,0,0,0,0,0,0,0,0,0,0,0,0,0,0,0,0,0,0,0,0,0],"sum_hessian":[6.396E3,3.925E3,2.471E3,2.87E3,1.055E3,7.7E2,1.701E3,5.48E2,2.322E3,1.54E2,9.01E2,1.2E1,7.58E2,1.036E3,6.65E2,4E2,1.48E2,1.471E3,8.51E2,1.11E2,4.3E1,5.03E2,3.98E2,4E0,8E0,4.3E1,7.15E2,9.19E2,1.17E2,6.42E2,2.3E1,6.1E1,3.39E2,8.1E1,6.7E1,8E2,6.71E2,3.94E2,4.57E2,1.01E2,1E1,1E1,3.3E1,4.07E2,9.6E1,2.05E2,1.93E2,1E0,7E0,8E0,3.5E1,3.43E2,3.72E2,3.91E2,5.28E2,1.07E2,1E1,4.96E2,1.46E2,9E0,1.4E1,5.4E1,7E0,3.37E2,2E0,7.9E1,2E0,4.9E1,1.8E1,1.67E2,6.33E2,1.57E2,5.14E2,3.29E2,6.5E1,1.72E2,2.85E2,8.1E1,2E1,5E0,5E0,1E1,2.3E1,3.5E1,3.72E2,7E1,2.6E1,9.7E1,1.08E2,1.76E2,1.7E1,7E0,1E0,2E0,3.3E1,5E1,2.93E2,3.15E2,5.7E1,3.42E2,4.9E1,4.85E2,4.3E1,1.2E1,9.5E1,3E0,7E0,4.11E2,8.5E1,1.8E1,1.28E2,6E0,3E0,1.3E1,1E0],"tree_param":{"num_deleted":"0","num_feature":"33","num_nodes":"115","size_leaf_vector":"0"}},{"base_weights":[2.907418E0,3.6452782E0,2.1234555E0,4.0013647E0,2.4885743E0,1.4841902E0,2.412031E0,4.2651296E0,2.551896E0,1.9672166E0,3.3591096E0,2.1300204E0,1.1824468E0,2.7224052E0,1.743005E0,4.510501E0,2.9145598E0,3.1213946E0,1.0359704E0,4.684347E-1,2.2858934E0,4.704362E0,2.5701592E0,5.4347706E0,1.9771669E0,1.7020787E0,8.442665E-1,2.8720636E0,1.3152035E0,1.8553748E0,6.8721306E-1,4.024604E0,5.2165275E0,3.3327267E0,1.2233566E0,4.1521244E0,2.09762E0,3.371459E-1,2.8416762E0,-1.2563752E-3,2.5527673E0,2.0376852E0,4.0791492E0,3.4880254E0,6.9725704E0,2.4299066E0,1.0268849E1,6.341387E-1,6.811546E0,2.9166248E0,1.4348433E0,-1.367354E-1,2.0077865E0,1.0571425E0,-2.5870857E-1,2.795072E0,5.3233433E0,1.0682852E0,4.1586595E0,1.5567971E0,2.456648E0,-4.8704928E-1,1.353942E0,4.182939E0,7.789846E-1,5.868113E0,4.2576594E0,-2.087846E-1,3.5318866E0,-3.0938324E-1,1.7506758E0,5.8278284E0,2.7844565E0,1.4404994E0,3.607589E0,2.6212845E0,6.0240054E-3,1.59432E0,6.7123723E0,-2.3521683E-1,1.8998294E0,4.7607503E0,-2.503095E-1,4.7589035E0,1.8786886E0,5.5470214E0,-2.99508E-1,2.02273E0,5.0231194E0,-7.002082E-1,7.691314E0,3.6364264E0,1.6145384E0,-4.0168837E-1,1.87081E0,7.631765E0,-2.85212E-1,-6.508178E-1,3.2114768E0,1.1912689E0,3.2296455E0,-3.4091455E-1,3.7089465E0,4.040265E0,1.6585829E0,1.3225652E0,-1.2244196E-1,-3.9997646E-1,2.0309377E0,2.9373834E0,1.6067824E0,